%YAML:1.0
---
opencv_ml_ann_mlp:
   format: 3
   layer_sizes: [ 2, 3, 3, 1 ]
   activation_function: SIGMOID_SYM
   f_param1: 6.6666666666666663e-01
   f_param2: 1.7159000000000000e+00
   min_val: -9.4999999999999996e-01
   max_val: 9.4999999999999996e-01
   min_val1: -9.7999999999999998e-01
   max_val1: 9.7999999999999998e-01
   training_params:
      train_method: BACKPROP
      dw_scale: 1.0000000000000001e-01
      moment_scale: 1.0000000000000001e-01
      term_criteria:
         iterations: 10000
   input_scale:
      - 6.0341900349567285e-03
      - -1.8504849440533968e+00
      - 6.3164018969094678e-03
      - -1.2159073651550725e+00
   output_scale:
      - 5.2631578947368418e-01
      - 4.9999999999999994e-01
   inv_output_scale:
      - 1.8999999999999999e+00
      - -9.4999999999999996e-01
   weights:
      -
         - -1.3400009943800990e+00
         - -1.0121526108716750e+00
         - 6.5803792610070622e-01
         - 1.5044295533731766e+00
         - 5.8344123882989118e-01
         - -9.2909062618631622e-01
         - -5.7270447107148559e-01
         - -2.3954576770402652e-01
         - 1.6737459408318148e-01
      -
         - 2.8588226923417577e-03
         - -6.8297520196917894e-01
         - -1.7132348017950108e+00
         - 5.8581326186090887e-01
         - -2.1925355406779343e-01
         - -1.0519451392013415e+00
         - 4.5211442649525790e-01
         - -1.1479084284269267e-01
         - 8.6855335086348751e-01
         - 6.4223517393240959e-01
         - 2.4398982298519781e-01
         - 1.0830856325297538e+00
      -
         - -6.4177100708216728e-01
         - -2.7273184403735490e-01
         - -1.3058438626914366e+00
         - 3.9930242089167439e-01
