<?xml version="1.0"?>
<opencv_storage>
<opencv_ml_ann_mlp>
  <format>3</format>
  <layer_sizes>
    48 32 16 10</layer_sizes>
  <activation_function>SIGMOID_SYM</activation_function>
  <f_param1>6.6666666666666663e-01</f_param1>
  <f_param2>1.7159000000000000e+00</f_param2>
  <min_val>-9.4999999999999996e-01</min_val>
  <max_val>9.4999999999999996e-01</max_val>
  <min_val1>-9.7999999999999998e-01</min_val1>
  <max_val1>9.7999999999999998e-01</max_val1>
  <training_params>
    <train_method>BACKPROP</train_method>
    <dw_scale>1.0000000000000001e-01</dw_scale>
    <moment_scale>1.0000000000000001e-01</moment_scale>
    <term_criteria>
      <iterations>1000</iterations></term_criteria></training_params>
  <input_scale>
    1.1601390117193285e-01 -4.1805617715486254e-01
    2.9999523317825790e-02 -1.6650021488428219e+00
    1.9246547408406565e-02 -2.1312639017285822e+00
    1.6852225539168913e-02 -2.4934259922049682e+00
    1.6598029647047683e-02 -2.8268155614345090e+00
    1.8915278175366184e-02 -3.2864132090054374e+00
    2.2958397621620601e-02 -3.7231207800309187e+00
    2.4017913793402939e-02 -3.7308981149343170e+00
    2.1953969121826209e-02 -3.4369061269109320e+00
    2.0985666026248816e-02 -3.4161587047342601e+00
    2.2100393548387793e-02 -3.9042647160310220e+00
    2.6157796436596749e-02 -5.1260123886664690e+00
    2.4907072943345390e-02 -5.0024618795584992e+00
    2.1057956402063944e-02 -3.8151970510624769e+00
    2.0310361416548996e-02 -2.9117384709882517e+00
    1.8039207405183322e-02 -1.8761453482181056e+00
    1.9194241591254522e-02 -3.1933255975213770e+00
    2.2007944691342603e-02 -3.8155754487690818e+00
    2.3671845035043361e-02 -3.7335499684879392e+00
    2.4677079958997521e-02 -3.1159488580641241e+00
    2.6411377023374160e-02 -3.1055157628350702e+00
    2.6365061140855683e-02 -3.4586383680808215e+00
    2.2792194507515476e-02 -3.5240311840688676e+00
    2.2099967117066598e-02 -3.6406324235759824e+00
    2.1180506093300352e-02 -3.2421737051584212e+00
    2.0951139713382937e-02 -2.7368494070000224e+00
    2.3045140770025750e-02 -2.7019676786032520e+00
    2.2744679324913090e-02 -2.7485675748261613e+00
    2.2073489288191115e-02 -3.0204692138451699e+00
    2.0953222223286345e-02 -3.2727025117533133e+00
    2.0579751744001510e-02 -3.1526917732347441e+00
    2.0488395248884825e-02 -2.8856405568527235e+00
    1.4186404644335539e-02 -1.2524230041329047e+00
    1.3314521734546621e-02 -2.6717911735301847e+00
    1.9375748360796474e-02 -4.1233429442513065e+00
    1.2485603356804150e-02 -2.1657850494067006e+00
    1.1219242567448520e-02 -1.0836981414950637e+00
    1.0510002959330144e-02 -1.7989513565174686e+00
    1.1742957790318895e-02 -1.8641892173216470e+00
    9.8529651959358821e-03 -1.5591360042187163e+00
    1.0943283960158354e-02 -8.0472489998993013e-01
    1.0384669119243860e-02 -1.1689504868747398e+00
    9.9177477210572983e-03 -1.3094074846708448e+00
    1.0464956927419142e-02 -1.9675924637256859e+00
    1.4376881080186556e-02 -1.1038473203787915e+00
    1.5995830071526551e-02 -3.4199148606520127e+00
    1.8388355321509189e-02 -3.7304115124015969e+00
    1.0485114402343679e-02 -1.4707058260991708e+00</input_scale>
  <output_scale>
    5.2631578947368418e-01 4.9999999999999994e-01 5.2631578947368418e-01
    4.9999999999999994e-01 5.2631578947368418e-01 4.9999999999999994e-01
    5.2631578947368418e-01 4.9999999999999994e-01 5.2631578947368418e-01
    4.9999999999999994e-01 5.2631578947368418e-01 4.9999999999999994e-01
    5.2631578947368418e-01 4.9999999999999994e-01 5.2631578947368418e-01
    4.9999999999999994e-01 5.2631578947368418e-01 4.9999999999999994e-01
    5.2631578947368418e-01 4.9999999999999994e-01</output_scale>
  <inv_output_scale>
    1.8999999999999999e+00 -9.4999999999999996e-01
    1.8999999999999999e+00 -9.4999999999999996e-01
    1.8999999999999999e+00 -9.4999999999999996e-01
    1.8999999999999999e+00 -9.4999999999999996e-01
    1.8999999999999999e+00 -9.4999999999999996e-01
    1.8999999999999999e+00 -9.4999999999999996e-01
    1.8999999999999999e+00 -9.4999999999999996e-01
    1.8999999999999999e+00 -9.4999999999999996e-01
    1.8999999999999999e+00 -9.4999999999999996e-01
    1.8999999999999999e+00 -9.4999999999999996e-01</inv_output_scale>
  <weights>
    <_>
      3.8600831502213306e-01 5.1704444171481112e-01
      -5.7471078058255853e-02 5.7157561788460975e-01
      7.7767939273406761e-01 -2.2787099612964168e-01
      -9.7685767305583671e-01 3.1592573175761679e-01
      3.9874270847899307e-01 -2.1715762264969610e-01
      -1.3796476871177513e-01 -2.7722990794930191e-01
      9.0140604340092273e-02 -5.1193628394625094e-02
      5.7432224156127032e-01 -1.1095839401175590e-01
      -4.0586003424722822e-01 -9.7018173470136670e-01
      1.2930455418926097e+00 2.0651916893844025e-01
      5.9332650442996437e-01 -6.9946535782231101e-01
      -2.5164784103668215e-02 4.9409646702575132e-02
      -4.4849285597364515e-02 -2.6778774102067027e-02
      1.2153609780173083e-01 -5.6597818925076350e-02
      4.2293173301200687e-01 9.4843514210380930e-01
      -1.2172442752994540e-01 4.5094772682697321e-01
      -3.9546862884645162e-01 -9.1786224878028982e-02
      4.5614257984177470e-01 -1.0923313247004605e+00
      5.6486704157313994e-01 9.8603319038198134e-01
      -1.9966885788970640e-01 -3.3818043357063565e-01
      -6.8438044856862690e-01 2.0854374475772042e-01
      1.0934052295537946e+00 4.8407869775420592e-01
      -9.1883471595367694e-01 2.1094778586985519e+00
      -7.7715509433944585e-01 -2.3967871169622629e-01
      7.1707664821703831e-01 -1.6634252939835861e-02
      2.2632588766719583e-01 -2.0312975769390391e+00
      -1.4827795922563249e+00 7.3532770425916538e-01
      -2.4982521067166186e-02 7.6612352496322353e-02
      -4.9111448868789973e-02 6.2249660636523740e-01
      1.5410869239723321e-01 5.1044145938937391e-01
      1.4361493653795863e+00 1.2098852653079729e-02
      -1.7448492839309893e-01 -1.4322380469073341e+00
      -9.0619065145796363e-01 5.6939213276291145e-02
      8.2722354147223442e-01 -2.2307032800495907e-01
      -4.0908873251811523e-01 3.7742443511569862e-01
      -7.6105341100391272e-02 2.5493575879744701e-01
      -3.8726648646181372e-01 -5.1792457222542643e-01
      3.0199625165435395e-01 9.7970370516525532e-02
      -1.0784740259675098e-01 7.9517007837397291e-02
      -6.4926769504511661e-01 1.7076235119164243e-02
      3.2685361865205337e-01 2.1953219277302611e-02
      4.0690716935849858e-02 4.8306005945176689e-01
      -5.2457175835440385e-02 8.7509078555423314e-01
      5.6819240922518655e-01 3.8596077544147489e-01
      -2.6911240292779565e-01 7.4414388424843353e-02
      8.0543463884952871e-02 -8.4024460915385860e-02
      3.3633699594582228e-01 -1.7982192911545308e-01
      -2.3776694310521510e-01 -3.9020020047450388e-01
      -2.0165866179670697e+00 -1.5361276616375588e-01
      1.3723739355538558e+00 4.4728313996505087e-01
      -5.7677790358625680e-01 7.9390948849059972e-01
      6.1603724572432211e-02 6.8850165391698692e-01
      -9.0101201065313763e-01 -1.3349763255039475e+00
      -5.1981256401972153e-01 2.2387737111798195e-01
      -7.6608208785544141e-02 1.0410616579719517e-01
      -9.7511351005857094e-01 1.7385106376596154e-01
      -4.5995196361694850e-02 1.4132600299477574e-01
      -4.3889841574015792e-01 1.1973756143149195e+00
      -9.0114115185979143e-02 1.7414205433492922e+00
      9.0046983541774928e-01 7.9071429241240032e-01
      -8.7780467107232307e-02 -5.0985233079124459e-01
      -2.7504618509474787e-01 -5.7402804435181698e-01
      -2.6473685571623162e-02 -5.4199602146013481e-01
      4.3375304231188921e-01 -4.3676667846464295e-01
      -1.6302511314555088e+00 -3.2129291461189913e-01
      1.2888046559872937e+00 6.7051898591729375e-01
      -7.8690142363223092e-01 7.3033685713994223e-01
      1.5023669283644123e-01 5.1986236834837496e-01
      -4.7925486551520696e-01 -1.2871468803961017e+00
      -8.0473908701539199e-01 3.6066112122961568e-03
      -2.6682249456538926e-01 9.4437768182081572e-01
      -1.1829302955930339e+00 1.5868607506098872e-01
      -9.5889353494250217e-03 -1.0190338001296788e-01
      -3.4630185056721402e-01 1.1562321822801802e+00
      -5.8075662615587520e-01 1.5455392821250338e+00
      6.3104314933850425e-01 8.9618138932246694e-01
      4.3986925556750772e-01 -5.3807468201256303e-01
      -5.9208279117072560e-01 -5.3676049217884791e-01
      -1.0097195239765568e-01 -6.4854494994880818e-01
      5.5307880596393355e-01 -5.9289286219248549e-01
      -1.5172287387875425e+00 6.1619783529321077e-02
      5.7192305913648878e-01 -8.5412054055598319e-01
      -3.1759081673162659e-01 2.7164169832036050e-01
      -7.8767458753431541e-01 3.6397306745405883e-01
      1.2081214707787803e-01 -7.0388246436497315e-01
      -1.5634328378763461e-02 -3.4082238839623707e-01
      -4.2300691789679917e-01 8.6553520468706047e-01
      -9.9606021744618378e-01 4.4412201452449084e-02
      1.0454441152928371e+00 -2.5816943621259991e-01
      5.2753843036063390e-02 2.8332700100943414e-01
      -4.2927692958078406e-01 1.1451868679048676e+00
      5.2524683627248703e-01 7.0787737027029107e-01
      4.1912122052804029e-01 1.1581127859119396e-01
      -1.1436803804848378e-01 -2.7715851261656799e-01
      2.3308471681153431e-01 2.5421864408842193e-01
      -3.2126619347440231e-02 -7.9090061123030708e-01
      -2.6318514716592811e-01 -6.2238987656809561e-02
      -7.1604766734565151e-01 -1.7436536659346777e-01
      4.5682404869107157e-02 8.0791634130657278e-03
      -2.3807665502447201e-01 2.0439010449014966e-01
      -8.1349447504189459e-02 2.9358566188515423e-01
      2.8192269208042264e-01 6.7343226353524588e-01
      -5.2203991352297607e-01 -7.1254580871647974e-02
      -1.8628923073368059e-01 -3.4017765645804215e-01
      1.5178074892542642e-01 7.0922728521277609e-02
      1.7244809169796696e-01 -1.1861517687982422e-01
      2.7779439518705401e-01 7.1401327261528436e-01
      -6.3578489454994391e-02 5.7210070051235784e-01
      2.0596429620292697e-01 3.6534655099677721e-01
      -8.2765091575578667e-02 -6.6470655170194703e-01
      2.8727333587617887e-01 -6.5751834437904236e-02
      -5.7704044307305058e-01 -5.7261846107610120e-02
      4.2859123134952687e-02 -4.9409928943335585e-01
      -1.5344892309228415e+00 1.1125019847887472e+00
      2.3787108714662103e-01 -3.7046179661157563e-01
      1.4086051246145563e+00 -1.0701342235944442e+00
      -1.1191975714234417e-01 1.0709872614153744e+00
      -6.5770396785181395e-01 -1.2074634819515040e-01
      -7.0046084212962312e-03 -1.1408820091339804e+00
      3.5188386857350912e-01 -9.7746836400396075e-01
      2.3451048678235392e-01 2.9137236624438106e-01
      -3.8223153678904598e-01 7.2168118976297535e-01
      1.4713545364835428e+00 2.8984553461581342e-01
      -2.9496975586002694e-01 2.4176100137035275e-01
      2.2454902183129094e-01 -4.0170922824385741e-01
      -6.3076371741570503e-01 5.5431807511098045e-02
      -6.4162259561191715e-01 -4.4151774167968438e-01
      2.3510296197233724e-01 7.8276706787173767e-01
      1.6144120366954706e+00 -1.4286784751333434e-01
      -1.5941946131273559e+00 3.5638446439986798e-01
      -8.3894271544573240e-02 -5.1721013700741802e-01
      9.5317739492751985e-01 -1.7431839753647134e+00
      1.0193639851532594e+00 1.4464342568181945e+00
      -9.7117559897484065e-02 -1.6082004204198384e+00
      1.1018064924075686e+00 -1.8121036833614304e+00
      9.9658028432968149e-01 -7.5824937482870636e-01
      6.9848400980276878e-02 3.5040779645458139e-02
      -6.8532923283569414e-01 -4.0101901287070219e-01
      2.0657885651024808e+00 -1.3597311195933723e+00
      -7.4430804042732823e-01 -2.5125670853103210e-01
      -9.0282526797985430e-02 -1.7425179787953118e-01
      -1.7240647237197632e-01 4.1592748329223000e-01
      4.6156786776100675e-02 -6.6775746112436585e-01
      2.0635817538721415e-01 1.4701447414549917e+00
      1.9722002527314655e+00 4.2422684681900018e-02
      -4.3760874168554703e-01 1.3342683992508033e+00
      -6.7861588805962847e-01 -8.7997999256098391e-01
      6.6735609808937379e-01 -7.5213937249141283e-01
      1.0470683833780647e+00 6.9708581032297268e-01
      -1.2785711427008868e+00 -1.2295009592454229e+00
      6.0247645306824293e-01 -1.0255757110704082e+00
      1.1341466807401051e+00 -6.7263156035414917e-01
      -2.1267470445818837e-01 -2.6693027093584470e-01
      -1.0836769847770547e+00 1.4771983568212452e+00
      1.0252211804617384e+00 -1.9829452059123591e+00
      6.2862538240194513e-02 -5.5493640907369302e-01
      3.5647107135706547e-02 -1.2233688790635842e+00
      1.3006026439726270e-01 2.9332737815676962e-01
      -8.7592004840002036e-01 -3.3723395255462174e-01
      1.2872914910318367e+00 7.8932752775230641e-01
      1.7688835845007838e+00 6.4365738512768256e-01
      -1.7169953695052895e-01 -5.6557690845255459e-01
      5.0822159634169028e-01 -6.2914100335787915e-01
      2.4144765503494728e-01 -6.6250836530752269e-02
      9.6901612466748932e-01 4.2883834765340406e-01
      -5.8534783531194001e-01 -1.9933233053534052e-01
      2.5259074268584475e-01 -3.7496834641816307e-01
      1.0715305074057599e+00 -3.7177117676739202e-01
      -2.4644875900238894e-01 -4.1058807634095063e-01
      -3.3001509744962987e-01 -2.2507460092369697e-01
      1.9536836950201747e-01 -1.4915847553506323e+00
      7.2647201689364310e-02 -4.9782091036879977e-01
      -3.3384798699418361e-01 -6.8553208794947917e-01
      5.8372449463005860e-01 -4.6063900766732585e-02
      5.0628828468874468e-02 1.9483266127116311e-01
      4.3653078010658231e-01 3.8623394532897415e-01
      1.2311955976179774e+00 4.3504394383861833e-01
      -4.7768592387033293e-01 -1.8253459362818669e-01
      -2.8794368526158959e-01 -7.2536643658404343e-01
      -3.5860825254587153e-01 8.2071678764887668e-01
      4.3044597690267128e-01 7.0877928584149638e-02
      -6.8468755251864255e-01 2.1099473016071668e-01
      -1.1425735005493699e-01 -4.9192861980735476e-02
      9.1573574471190089e-01 8.1072617259079535e-02
      -6.8711138232681512e-01 -1.1938859239155827e-02
      2.2548307928079950e-01 -5.0318391251419223e-02
      1.7714052035316605e-01 -9.5084138871845814e-01
      2.4203648838260969e-01 -2.6143057784518509e-01
      -4.6458865786404513e-02 -6.0105678228837078e-01
      7.8933117218712448e-02 -7.7549614194799965e-01
      4.2484965906609418e-01 3.8390248115453063e-01
      -4.2410166692764362e-01 4.3903996645821619e-01
      3.7398117164450584e-01 -6.2044562419279869e-01
      -5.2354363741601261e-02 -6.0011229720680548e-01
      -6.6532272761094510e-02 -4.7683272305367808e-01
      5.2543628391941355e-01 5.3363656544940574e-01
      -7.9929123294874352e-03 3.7008335494454453e-02
      -6.9876277409289367e-01 2.0091888993585286e-01
      -5.2966869369581926e-01 2.5383716287687286e-01
      3.3502109414416142e-01 -2.6985643643938800e-01
      -1.3385451505009958e+00 -1.2246454791035553e-01
      4.6541444455414221e-01 -6.8858324088176204e-01
      -1.0468972736719189e+00 -6.7038187436921026e-01
      5.1199599055036638e-01 1.8938639404969146e-01
      1.0043920313708876e+00 -1.9415935439253262e-01
      -9.8111426359013376e-01 -6.9635469206040168e-01
      3.2083863817954761e-01 -1.6859372597563743e-01
      -8.9446593826222595e-02 -8.7108099365816344e-02
      -2.6081949355225348e-01 -4.2869888671982359e-01
      3.2265048506839161e-01 1.8945580888437635e-01
      8.0852805380370030e-01 -4.2600142678055997e-01
      5.0890966829011985e-01 -1.0019402223361977e-01
      1.6920199712014608e-01 1.3378118873286227e-01
      -4.8679437767381001e-01 7.5293038677195956e-01
      -8.4099338117163869e-01 1.2377397705553630e+00
      -2.4249924888555940e-01 -3.5267276025809086e-01
      -3.1069253446079220e-01 -4.1952745935502939e-01
      3.4883084324116820e-01 -4.6468442772648433e-01
      -2.1944045420261253e+00 1.2479332520703826e-01
      4.0415320214619133e-01 7.2130790279548118e-01
      4.9516830336055279e-01 -1.5503998511996764e-01
      -8.2987312534528368e-01 -4.8997255263632505e-01
      -2.4358510765347990e-01 8.6240457379879426e-02
      2.8152156401587014e-01 -1.0817606494223000e+00
      -5.2376490429488975e-01 1.3714798868172492e-01
      1.6430931645029651e-01 5.7504315811575446e-01
      4.3753263995481290e-01 -2.1658986934394293e-02
      -3.7213024765951658e-01 7.0585810273809224e-01
      -9.5004258520502194e-01 -1.1954012378274818e-01
      -6.8713179002633379e-03 9.9922903632755178e-01
      -1.4709715741953552e-01 5.8384038144334249e-01
      1.5260169738655856e-02 4.9533319907589801e-03
      -4.4930991165168832e-01 2.6403814017146859e-01
      -8.2189553544713842e-02 4.1051489455781087e-01
      -7.3356424229997075e-01 6.9176942303221411e-01
      1.9243264271850671e-01 4.0695622730319558e-01
      -6.7830343247140462e-02 -6.3078239443087422e-02
      4.8023814890331765e-02 -1.1212221721796883e-01
      1.5441200961963684e-02 1.4886468895475571e-01
      7.0453168330541702e-02 -7.2710147189469665e-02
      9.9578774975247275e-01 2.3951328120066828e-01
      -1.9392682897710862e-02 -9.5421338729247196e-01
      -6.2794384617394960e-01 -4.6007933431000836e-01
      -1.2395365513189815e+00 -1.3017967134946590e-01
      4.8746917647752325e-01 7.1041366278351858e-01
      1.0498044513615667e+00 -1.6304208180339030e+00
      1.2216301293185712e+00 -1.3631743432422545e+00
      7.8668195907742455e-01 1.7329730855866374e-01
      -1.4052399351595862e-01 1.3209535094665456e-01
      -1.6523690767167012e-01 9.9603727851691110e-02
      1.3952319082946820e+00 -1.0290686059270737e+00
      -4.4799080608566150e-01 -5.7646093642516776e-04
      -5.8632197554159451e-02 5.3483144599272692e-01
      3.5199740209148822e-01 9.9721540818669213e-02
      6.4919945689677294e-01 1.6372747451619971e-01
      -4.9915921525951862e-01 1.5279670135428998e+00
      1.1175388183539077e+00 2.2924591464651125e+00
      4.1770946866122577e-01 -1.3866381154751448e-01
      1.4314168043622191e-01 -8.0726706689751926e-01
      -2.0775724057742782e+00 5.6125080050111342e-01
      5.5851812427113945e-01 -5.9745192261535178e-02
      6.2433894865834638e-01 -1.2921245704225881e+00
      2.5291381277311269e-02 -1.7375191169463198e+00
      1.1386799704883883e+00 1.6237856982656138e+00
      2.7278397801507531e-01 -1.0927443323702182e+00
      1.8597543938860370e-01 -1.1024145437915607e-01
      1.0912053889479261e+00 -8.5210127048904438e-01
      5.4881185859218384e-01 -1.7887142026670896e-01
      -1.5914831684275128e+00 5.6673246014414902e-01
      9.7507412646209490e-01 -1.2799298635875136e-02
      1.7713400735494422e+00 7.0608048476950991e-01
      -3.9509091186863193e-01 1.2866484643530838e+00
      4.2898104320271607e-01 1.2043675001922516e+00
      8.9300296068967622e-01 1.8380815628873601e-01
      -1.3483305073122656e+00 4.1473809085729556e-02
      -1.3624114706199162e+00 3.0292561363189724e-01
      7.4357963939025928e-01 -8.2884328047078748e-01
      2.3694676916498997e-01 -1.1005352403697282e+00
      -2.9902780958186376e-01 -1.2469741799472152e+00
      4.3949203338942450e-01 1.1855158546945090e+00
      -4.3526905088871276e-01 -9.7344199004505716e-01
      2.0134954647647620e-02 1.0008313303306713e+00
      4.5440334220902645e-01 -5.8145706264811814e-01
      6.4666049377050439e-01 -2.9822358455787318e-02
      -6.8642168555623606e-01 3.5755633826375788e-01
      2.7666818750514233e-01 -2.3707719373997915e-01
      7.4355123317202976e-01 9.2913615319856924e-02
      9.2752560498651729e-02 1.1257552048439845e+00
      -6.6941625121187143e-01 -6.8892006698743391e-01
      7.4645575945292175e-01 -6.1163456281291018e-01
      -4.9062565641038625e-01 3.7685484731021823e-01
      -1.4775007338838186e-01 5.4645973046162732e-01
      -1.3669811286026640e-01 -5.0132544288093162e-01
      1.0361452382338911e-01 4.2694560947308874e-01
      -4.5290924464006094e-01 -8.7242714737659433e-02
      -4.2350829126125582e-02 1.7092308402552966e-01
      -4.6415346497349691e-01 -2.8499813606386226e-01
      6.2184050838052347e-02 4.0365272631449811e-01
      -6.2494195556046228e-01 3.4389084645695367e-01
      4.9171936740948968e-01 -8.2058113990888415e-02
      9.2309254318547376e-02 5.3909748847211703e-01
      2.3791329695642932e-01 -4.8651449767983684e-01
      -1.2391001869342137e-01 -5.2341996489058584e-01
      2.2668929630099618e-01 2.2368526649647164e-01
      4.6312651898245111e-01 -8.3757208176702169e-01
      1.2490443505718434e+00 3.7113476531334216e-01
      1.0188011086796199e-01 -3.3679590673556437e-01
      -4.7351255659301095e-02 1.7330577805363689e-01
      2.8798849981116714e-01 -4.1246590695006757e-01
      6.3071871042136596e-01 -4.9881101798004927e-03
      -1.0199506939851031e+00 2.4334204520172395e-01
      2.2188861936462359e-01 -1.5076205267053797e-01
      -1.3517956283667493e-01 -5.2930007462827933e-01
      2.3359899476296522e-01 1.0874295198704937e+00
      -1.2095529955795201e+00 -5.3127068225606133e-01
      7.7461829509453850e-01 -2.2391912296802038e-01
      -2.6524630503047791e-01 1.1138635589768338e+00
      6.9268490176233033e-01 -8.7081780291292676e-01
      -5.6812013407696971e-01 -3.1695517435344062e-01
      -3.6249394744360541e-01 -5.3387171698362523e-01
      4.0865278902300722e-01 -1.7572560241460589e+00
      3.3625360053481174e-01 -4.4888055893597018e-01
      -1.4078631641814312e+00 -8.2664908014762972e-01
      6.3105089805995784e-01 2.0628819925613684e-01
      5.7598216782710265e-01 3.7488983410588278e-01
      7.8421974877360567e-01 -1.4417949124330980e+00
      -6.4218458360520114e-01 1.4024247570448384e-01
      4.5779195710981158e-01 -8.4904047871907973e-01
      -2.1573294151080818e-01 7.3004803229104864e-01
      -2.5700720386815890e-01 9.9345513152666529e-02
      -8.3152059157434099e-01 -1.3774448732643214e+00
      6.1668385436254680e-01 -3.6267927955588508e-01
      1.0160995282625311e+00 8.4495441363959423e-01
      -1.5492343381347737e-01 -3.0081901554077023e-01
      3.9846092630793239e-01 -2.8967522758149550e-01
      -6.5790491629940739e-01 -3.6282177504072893e-01
      -9.4657390910098038e-01 -1.0272628935890258e+00
      1.7826879082628944e-01 -4.5630352068055574e-01
      -1.9540493463019604e+00 -9.4442154436901360e-01
      3.1555403316471442e-01 7.0277610509376465e-01
      -1.1329418393429691e-01 -4.3450174682693260e-01
      3.9344482316937296e-01 -1.6250941341046632e-01
      -3.6636735914534740e-01 3.6130929907187659e-01
      6.9045002720099094e-03 -4.5534806862672822e-01
      -5.2866657963939079e-01 -1.7404495897352229e-01
      -8.2861002756740809e-01 2.2108807901693883e-01
      -7.0194219010989656e-01 5.5351096125265553e-01
      4.0736953900409956e-01 3.4458073860417754e-01
      5.2841017052115069e-01 -2.4876912521538247e-01
      -4.7345222044720864e-01 -5.3763530048206254e-01
      5.0708982248206552e-02 1.5448794639901592e-01
      -2.7530005134688651e-01 -2.9194097974383926e-01
      -4.9389010715447584e-01 2.3934258528602270e-01
      5.1520784130888364e-01 1.0876363763923669e+00
      -3.8661517415931207e-01 -5.3906150517287177e-01
      1.0376630836819540e+00 6.4804930319196286e-01
      -2.1492762287289513e-01 -2.1816471089222572e-01
      -6.3285380381471823e-01 -1.2570756956986895e-03
      -5.1599092879646280e-01 -3.9648759090198654e-01
      1.1523044520814900e-01 -6.8128049328198548e-01
      1.0353022296941319e+00 -3.1969460202858790e-01
      -8.3600837244544413e-01 1.6629224967986656e+00
      -1.7131259593243686e-01 8.6483299511937217e-01
      4.5487225797007347e-01 4.0073579588462854e-01
      -6.3171408434012266e-01 -8.5491966322512947e-01
      3.4664735398272717e-01 1.0870535037111168e-01
      -9.0409583908442892e-01 9.7725643886183267e-01
      9.2232684320357250e-01 -3.3554009166692311e-01
      6.3799833847452825e-01 3.4266763376013332e-01
      6.5173303966089702e-01 1.3108332785697747e+00
      1.9946954468711449e+00 -7.3299437754773755e-01
      1.7319267108635921e+00 -6.3403890820682329e-01
      2.1678077502352591e-01 8.7211830190629558e-01
      -9.9833704489015207e-01 -4.9602855182417399e-01
      -4.3417110451127489e-01 4.9594880249674722e-01
      1.8674324499469343e-02 -1.3487013450771768e+00
      1.7060981363800574e+00 -3.6848830025855117e-01
      -5.6435443463488055e-01 1.0704999203798891e+00
      -7.0758079646243355e-01 5.4661627428185267e-01
      -6.4680596760757691e-01 3.1069744112061598e-01
      -2.7574837055876406e-01 -7.8746345663682848e-01
      2.7187926540530699e-01 7.5476451477824325e-01
      -1.0918106909565017e+00 1.1743588072666395e+00
      7.9651383896546524e-01 -1.2375114009027930e+00
      -2.9562017074882080e-01 -6.9375784962120046e-01
      1.0235161811259628e+00 8.3964029481764582e-02
      7.8476513033173589e-01 -6.6154348927569509e-02
      2.1353269274251709e+00 -2.1468883436385525e-01
      -7.4880024435919212e-01 5.5252455766821140e-01
      -7.0427639450313195e-01 -2.1831322750261295e-01
      -4.0291004807599134e-01 8.2960465138001438e-01
      -6.1029074753517687e-01 -1.9120527116330828e+00
      9.2749818153538355e-01 3.2987713166061555e-02
      -3.9011486533647610e-01 8.1521645606514559e-01
      -5.8364090852982664e-01 1.0106986112198524e+00
      -4.4357586056662190e-01 2.6397990071885341e-01
      2.0212513887532474e-01 -3.5699552587942401e-01
      -2.4311700574962752e-01 6.0842313884133137e-01
      -1.1922491837648552e+00 -2.4194180776815649e-01
      4.5742039667668899e-01 -1.1193116270575774e+00
      -1.3185914200383381e-01 -5.5810421104336227e-01
      -9.4064146752477679e-02 9.7475361411409200e-01
      9.4192853129159444e-03 -2.0081117578796995e-01
      1.4558312204896755e+00 -6.3252860005328437e-01
      -5.1152247486308122e-01 1.2120214466239987e+00
      -4.2014642208226405e-01 -4.4710354807032271e-01
      7.5343755361635312e-01 6.1540135174197430e-01
      -3.0627897359216083e-01 -1.2855355391135579e+00
      3.8171344857586159e-01 9.1071405308444570e-02
      -4.9153168801610408e-01 6.6422644988545776e-01
      5.1427036677561166e-01 7.1105302327997033e-01
      -2.6945612307981159e-01 4.6234954327469607e-01
      8.2152733126803512e-01 -1.9441843992868299e-01
      -9.1269261317281702e-01 -3.5598662268499170e-02
      -4.3958006114773573e-01 -4.3859619589998911e-01
      6.3035965171877073e-01 1.7183541007313888e-01
      1.1460131258433347e-01 -1.0034547525111492e+00
      -5.9750998978349934e-01 -7.2527033435486676e-01
      -6.5723254880175619e-01 -5.8921560999004585e-01
      1.4692916174737455e-01 -7.9707330058522896e-01
      -1.3988781757287622e-01 6.6911179681248134e-01
      2.2069442048513752e-01 7.1240587140741676e-02
      1.2030671698480209e+00 5.2922476721376011e-01
      3.4112722520633397e-03 -4.1052936315815114e-01
      -7.7278114576363544e-01 5.0086328101335864e-01
      1.8251036576270629e-01 -7.7836029590914635e-01
      3.4692316781250537e-01 2.7156035408785639e-01
      -3.5945177394829268e-02 6.0523330803274311e-01
      1.4912542288282791e+00 -1.0020428773428781e-01
      -1.8592445601476999e+00 1.1186607240212271e-01
      5.4185994518210390e-01 -5.8233256367333031e-01
      -4.0112013615346206e-02 4.1156262465178239e-01
      3.6360722679778212e-01 -3.9810505209247071e-01
      -8.4448751160512869e-01 1.3583716943156007e-01
      3.0345123724528822e-01 -6.1561098307776474e-01
      -2.5281027196199102e-01 -3.1224587850217983e-01
      1.2966883212184657e+00 -3.0176853140071169e-01
      -3.6466174576688681e-01 -3.2098201353159794e-01
      1.0264002006535922e+00 3.1278285071989065e-01
      2.2257638425884263e-01 -1.8154379755056030e-01
      -3.9556353415705953e-01 2.4506436501979420e-01
      5.9822152954222019e-01 2.5052593405935664e-01
      -7.9265713411755617e-02 -4.3168031711868193e-01
      2.5013925486851146e-01 5.6136338868204116e-01
      9.0215131704180163e-01 -5.8045990763032573e-01
      -9.3664056324141576e-01 7.1261884359856364e-02
      -1.3405428570707026e-01 3.4308342265091268e-01
      4.1251999828704703e-03 2.4887563872780175e-01
      1.4327618500395496e-02 -1.9117979836736029e-01
      -5.0922594332668036e-01 -1.0543510064141641e+00
      9.4006966768189593e-01 4.7281593085241985e-01
      -3.6262903610504110e-01 7.4608445642128651e-02
      3.3754665782343907e-01 7.8208444290589013e-02
      -2.8163810313021531e-01 9.6871756354960870e-01
      7.1350809484180197e-02 7.7602996673191993e-01
      4.9773436582967880e-02 -1.4463579354240338e-01
      -3.4624322148056558e-01 3.2298582889197247e-01
      7.6440134596004350e-01 -4.8702852932369445e-01
      1.7053280882803598e-01 -4.6293844320486294e-01
      4.4479849439817787e-01 2.7627135971719796e-01
      6.2495835462591853e-01 -7.2004683952325566e-01
      -5.5381446383039989e-01 -1.5101092576244965e-01
      3.0741214057056898e-01 1.9042163626848424e-01
      -2.1707201323926337e-01 -8.9196895230597417e-01
      -1.0880819662251415e-01 4.2839321919586798e-01
      -5.9931543115970998e-01 -5.0591332155430824e-01
      1.2438733028205752e-01 9.3470082599839677e-01
      -3.4991880720963042e-01 2.9766733009377211e-01
      -1.6559087842266468e-01 -5.0037762486022826e-02
      -8.5079288799787178e-01 4.9338003979295358e-01
      1.3897607311492782e-01 6.8413991325792323e-01
      -2.4879953570702873e-01 3.1590928428843490e-01
      -4.8638946885449158e-01 3.1971636243818957e-01
      3.2342958883109713e-01 -1.1162194767929559e+00
      2.5585923079545009e-01 -1.9849323165508251e-01
      2.0732466325402230e-01 6.5742395050951985e-01
      2.5361497269771133e-01 -8.0597754710859448e-01
      -2.6779127172167589e-02 -9.0751931719855003e-02
      6.3568766841037105e-01 -2.3673186588210732e-01
      -6.3534400207324121e-02 -5.6308234811568003e-01
      -1.3283252762956930e+00 5.0352246195176442e-01
      -8.9297929015426958e-01 1.9330044811797475e-01
      1.3110899444948221e-01 9.1278065267008712e-01
      -5.3676158540918584e-01 -8.7408202376768385e-02
      -4.9068553656013769e-01 -7.1634759473725029e-01
      -1.0108179782732261e+00 5.8365041251500638e-01
      3.1619421446681323e-01 -2.3086022740097939e-01
      -5.9990494765709246e-01 2.0730475036641074e-01
      -8.7103884673511278e-01 5.4577955958889979e-01
      -4.8538678615213182e-01 -3.7086461929098324e-01
      8.0289706631673874e-01 5.5471787560347352e-01
      2.0257069886578047e-01 6.1071604815311531e-01
      8.9109204254465807e-02 -1.0108682587263547e+00
      -2.3958952672980358e-01 -5.2538826086722978e-01
      4.7288474480622411e-01 -6.8467206434260497e-01
      3.4440227824037994e-01 7.4015702769160441e-01
      -5.0161017587468359e-01 4.5969211948344807e-01
      -1.1040371020602731e+00 -4.1470821498465475e-02
      -7.2585665497025564e-01 1.1931945949247202e+00
      -1.1008614019362641e+00 -2.9228768644107100e-01
      -9.3252890618531592e-01 -4.9614526037256385e-01
      -5.6225877781839417e-01 9.9754068820367348e-01
      -2.7951756108568142e-02 -9.0033804173856868e-01
      -7.5023336298920729e-01 2.2125750256930254e-01
      -6.5847748583551735e-01 3.0296548434579013e-01
      -6.7471127216962823e-01 -4.8144626580272681e-01
      1.0394188534539046e+00 8.8622422832548553e-01
      -4.0209729288484508e-01 3.7747623295316951e-01
      -9.9050746488156746e-03 -6.6060027062920035e-01
      -1.0832636544193831e-01 -1.7197091260672328e+00
      7.6296136429016237e-01 -1.9823449155668225e+00
      1.5267851884004471e-01 1.1954187813028361e+00
      1.0429746450884769e+00 7.7440504313249037e-01
      8.7760879280275406e-01 6.8525140846235866e-01
      -3.5952332235471912e-01 1.0383923777243287e+00
      -2.0512402582013098e-01 -4.7872674135163151e-01
      1.0850785652077148e+00 -7.3989983008417259e-01
      -3.4105773553989172e-01 -6.2588157353387497e-01
      2.4298034531543874e-02 -1.1688576106631978e+00
      -1.4342765693305443e-01 8.7557290807819932e-01
      4.9440756230242966e-01 -1.7260634705037767e+00
      -7.8635770922845669e-02 6.9061585720782681e-01
      8.2968582991606887e-01 -1.2439021811579052e+00
      4.2080922113384911e-01 -6.1070137736945296e-01
      -8.7260725365026259e-01 3.5729731872785231e-01
      1.4695890634231734e+00 2.2806246184237322e-01
      6.0599562024978133e-02 1.0274794489790704e+00
      7.7056896468221869e-01 6.5327465031080767e-01
      -6.4515595491625699e-01 -2.8842959590539119e-01
      2.2457277593562011e-01 -7.2909431949614423e-01
      -5.6586981851148599e-01 4.3729707554588437e-01
      -1.5253981229644966e+00 6.5876682038361134e-01
      -8.9399502026163347e-01 -3.5756275535433375e-02
      -2.0862349092040247e-01 -2.8032975890767753e-01
      -9.5865043292391616e-01 2.4672124321791822e-01
      2.2110607322501655e-01 6.1269090562422157e-01
      -1.2329999247194301e+00 2.3575648082501910e-01
      -4.6406190567167394e-01 9.9900061863101253e-01
      -3.7285229733276554e-01 -9.9584821904718842e-03
      4.1465274676590946e-01 -1.4231147110367290e-01
      -1.5142484506514534e-01 1.9180467381284474e-01
      2.7264584144549894e-02 -1.2412154697786224e+00
      2.1817362946925983e-01 -5.7466959983402610e-01
      -2.1890332771131410e-01 2.1017103451400210e-01
      -6.2866125242699811e-01 6.6247963180311120e-01
      -2.7580386804229229e-01 -1.4019999672697522e-01
      1.4881710358265790e-01 -1.4416038836069789e-01
      -4.5156172640084563e-01 5.2775599769006809e-01
      -6.9945578337100878e-01 -7.3165382819088631e-02
      8.9755576364524992e-01 3.4789559256882802e-01
      -3.5253776590564528e-01 -4.0258706789484267e-01
      6.8852368007930237e-02 7.6406600313166251e-01
      -4.6053782054310061e-01 1.9874410118698455e-01
      -1.3202845144335174e-01 -1.1545917962816787e+00
      -1.7722747937019281e-01 3.1903146908421798e-01
      3.9534298486017627e-01 -1.8028798188772463e-01
      -4.1611588581514264e-01 3.7694857987549235e-01
      5.4406031260330512e-01 3.0495410310868204e-01
      1.7045749735767639e+00 -7.9843602624423016e-01
      -8.8497625292568205e-01 9.7101501097467235e-01
      3.3265377360279685e-01 -1.4865100750510860e-01
      6.1538630240300674e-01 -4.0140589662158693e-01
      3.9738984949459565e-02 -5.8976526179512823e-01
      2.4758585666347538e-01 2.9650417807225199e-01
      1.0960983034808724e+00 -1.0279931499944456e-01
      5.5113595650071484e-02 -3.2023199134585290e-01
      1.3392362653715154e-01 -3.2229670110521791e-01
      2.8198733972795625e-01 -5.7805412484643182e-01
      3.2354666336285420e-01 -7.2359264709579252e-01
      6.7437500046380450e-01 -4.1433448947702384e-01
      -9.6003796146615883e-01 5.6049714842677079e-01
      8.2872024160995358e-02 6.1421036258334072e-01
      1.3916479620936895e-01 1.8011705523718197e-01
      -6.6209943206154287e-01 6.9571616064337372e-01
      -4.7989319472856790e-01 1.8310695247040251e-01
      6.8934684757621034e-01 -4.1127257909791193e-01
      2.1970143970107603e-01 -5.3590345870082701e-01
      5.6837839579923921e-01 -8.4573731999261770e-01
      -8.0801585139325438e-01 -3.7552950867167384e-01
      -3.2555086090133978e-01 2.4559003587088660e-01
      1.1800269080792427e+00 3.5433766700874914e-01
      2.0076927518342900e+00 -1.3880564170749470e+00
      4.3220130128502265e-01 -2.8713616078059917e-01
      -3.0321713520187105e-02 -9.1803307627515901e-02
      1.3991248868470345e+00 1.2831625561205817e-01
      1.3319045873986227e-01 -5.9208592215714440e-01
      1.2646962385505930e-01 -1.1687005295294088e-01
      -2.4289612859227930e-01 9.4783438321708946e-01
      -2.8066906073195874e-01 1.0889515143600876e+00
      -2.5799709531733367e-01 4.9371307448916837e-02
      5.3399798103315277e-01 5.2391596391591722e-01
      -6.1650093948251328e-01 -5.0661191125799410e-01
      -1.9404953996503091e+00 -6.0629437543056619e-01
      4.0642059257811697e-02 6.4058231971843982e-01
      9.2895162620765925e-01 -2.4234767237486056e-02
      3.4482956811169363e-01 4.9291837180167003e-01
      -6.4095319559336150e-01 2.9513398369797766e-01
      -1.5259411873399236e+00 -7.2750729469777719e-03
      -1.1288044282521714e+00 -4.7741306178917858e-01
      -7.7308512562858467e-01 -7.3508091333343273e-01
      1.1789896011893384e+00 3.6474909678439982e-01
      -9.7607272096887743e-01 7.3471597756551243e-01
      3.4490839133227386e-01 1.3642809494443946e+00
      7.4144361779197288e-01 1.3388304839494258e-01
      4.5741746543296774e-01 -1.6422308247387154e+00
      -2.4808659069093617e-01 2.7044068634287804e-01
      -7.4630349224981218e-01 5.0466455894748818e-01
      8.4857536655017862e-01 -4.4381657837502386e-01
      2.6905011175591100e-02 1.5344636673766976e+00
      -5.6975072222297662e-01 9.4084968495313548e-01
      -6.2992951809247266e-01 -6.8965838355872033e-01
      -3.2092884624649082e-01 -5.7526067830122607e-01
      -1.0258846986608079e+00 3.9843059664703556e-01
      -1.9505306339169872e+00 7.0993331888931721e-01
      2.8129832899606749e-01 -1.4139907026454554e-01
      -4.2130869518880044e-02 6.3055777357774223e-01
      -4.7628161834038268e-01 -3.3420720786596403e-01
      -1.9704789025853371e+00 -1.0250331079439078e-02
      8.5201181196283515e-01 6.3217839492726369e-01
      4.4505644352440932e-01 -9.7737872254160502e-02
      -5.4398452322777213e-01 -2.0661116333559759e+00
      1.0513500499502608e+00 2.6448776604368002e-01
      -3.6051105278063528e-01 2.9395736685362334e-01
      1.0908968418793250e+00 2.1362205634668849e-01
      1.1285496874370220e+00 -5.4221306438250982e-01
      1.1064495957606157e-01 -4.5958443057142872e-03
      -1.8799922238871059e+00 -4.9162596336313730e-01
      7.5479491883379812e-01 6.5349111510899904e-01
      1.0284578917617173e+00 -1.0279705099263234e+00
      1.7889519271777550e+00 8.2763026688623154e-01
      -1.8407163345416344e-01 8.0986063173147926e-01
      9.9716910987745022e-01 -4.1394101933898170e-01
      -1.6998866669659576e+00 -8.4422580670490011e-01
      8.7454974277125330e-01 3.4133811923242896e-01
      -2.0310864152859782e+00 -1.1954594500281694e+00
      -2.4972730060506193e-01 -3.0335326546843983e-01
      -1.5644682120503567e-01 1.4987717837079715e+00
      1.6976318602162535e-01 -9.6908614541870863e-01
      6.6731282023424543e-02 -4.1878098231149796e-02
      -9.2660634685494614e-01 2.5421605634579342e-01
      -2.1459029603312882e+00 -1.4026699419420041e+00
      -5.5712418716389556e-01 -4.4276603598764085e-02
      -7.2016371148697678e-01 2.7366915754802529e-01
      1.2781507300331296e+00 -1.9738616251757499e-01
      -2.5770974823489241e+00 -6.0452047115174493e-03
      -3.3542640771626664e-01 1.1783517611627738e+00
      7.4260958190971749e-01 1.6397611884799139e+00
      -1.2412474875233905e+00 -1.0980115346232537e+00
      -1.0253218611633594e+00 1.4451687862823623e+00
      -1.1620260570474607e-01 -1.3157540300794057e+00
      -2.4384598632449087e-01 1.9863346115877207e+00
      6.6794790192726972e-01 8.1333554289002485e-01
      1.5363649990524568e+00 -3.7635327782283606e-01
      -2.0308103297896163e+00 1.5383680125910935e+00
      3.5975148338059759e-01 -5.8399302120880803e-01
      5.2082662909503580e-03 3.5520314056290364e-01
      8.7961418122664548e-01 -1.6729646561511749e-01
      2.7013056841381694e-01 -5.0445067727170367e-01
      -1.3592456650233711e+00 -1.0174121617075507e+00
      1.8152872137678738e-01 -1.3832078776370909e+00
      2.2355861397256533e+00 7.6077770779822473e-02
      1.1223970454194296e+00 -3.5305632308555435e-01
      1.3491925920974071e+00 9.9596197443661250e-01
      2.5899894064014067e-01 -6.3260124372977966e-01
      -4.3875747580490171e-01 -1.2620579604436241e-01
      1.1364205705166046e+00 -7.1580250873438023e-01
      -1.0387663665277493e+00 -4.9440710276081756e-01
      4.0867625220709219e-01 8.1196801134842278e-01
      1.1388209453765010e+00 9.2311538392781878e-01
      -1.2772044401064480e+00 3.5415939691340263e-02
      5.1613302846162834e-01 4.8554438266491678e-01
      -3.1542264614870752e-01 -9.2877663024731286e-02
      9.2069004081550199e-01 -7.6613502327297678e-01
      -1.7305673774495384e-01 -1.1159584334099413e+00
      -6.8940917384840028e-01 3.6903195189338753e-02
      1.1440869979022146e+00 -8.5082345649153970e-02
      1.8901616052747996e+00 -2.3842012950861796e-01
      5.3225499040702873e-01 -6.2864537419675637e-01
      5.7017738297497833e-01 -1.8006533956368428e-01
      7.8946050779454391e-01 -1.0201527981382614e+00
      4.1763484561229669e-01 -8.4566769579282541e-01
      7.2929021005686512e-01 1.6098763283440731e+00
      3.5592939982982202e-01 -1.1931428024800983e+00
      -4.1490675156158208e-01 -4.2550839489806447e-01
      4.0529614490123510e-02 3.1681284087189449e-01
      -6.2577489460617886e-01 -8.3054099461694264e-01
      -7.4206220437319448e-01 2.3617362577308879e-01
      5.2616272909719142e-01 1.8390588742801445e-01
      -7.5073125996184331e-01 1.4392210843337663e-01
      8.1885182060953743e-01 4.8532411157610106e-01
      2.0571961603512698e+00 9.3762194738518115e-02
      -3.4753400805991325e-01 9.0388978675171028e-01
      -2.4806491272309037e+00 9.2049509084448522e-01
      -1.6196129392542200e+00 7.6038667025468609e-01
      -1.4342920999890001e+00 -1.5428106163751693e-01
      -7.5177982472818983e-01 3.1943515450970544e-01
      7.9407689902204126e-01 7.1429368038203156e-01
      -1.8058844966284211e+00 1.2791828326444714e+00
      3.5948059620364581e-01 1.0622712744755940e+00
      -5.4795043897539009e-01 2.1990451001383682e-02
      -9.7520131806159524e-02 -1.1373866225002487e+00
      5.9321929151997033e-01 -6.8328636780819973e-01
      -3.3825286946331595e-01 -1.0031043827803130e+00
      3.8302061745484389e-01 -7.3171419495892898e-01
      1.7959621463311075e+00 1.2252717944007072e+00
      -2.2189724847325495e-01 -3.4061622229466065e-01
      4.2053567174253359e-01 6.6298339593344191e-02
      -1.1811925607660681e-01 2.8405469562182389e-01
      3.4982489822385648e-01 5.5691533723985587e-01
      -5.4584601380813591e-01 9.1003869931127812e-01
      -2.7656188611993993e-01 -1.7117396628308815e-01
      9.8291859233634160e-01 1.3401851788905639e-03
      -1.8576617979332147e-01 -2.6869219410401363e-01
      -1.4094461437421366e-01 -1.2460105219666139e-01
      2.9644723784964483e-01 -3.0651590193479822e-01
      -6.0110350048791850e-01 -3.1866052009094603e-01
      -8.1434677270400413e-01 -2.5112082715460143e-01
      7.3102755265133690e-01 -1.7222218137286325e+00
      1.0346730938323858e+00 -1.1159879952214471e+00
      -1.5780914255956166e-01 -4.6387270597298891e-01
      -7.4139338155130274e-01 8.1330192133973089e-01
      -3.1879084549014508e-01 -7.2569032670248124e-01
      -7.6572155581117385e-01 5.3206971877140485e-01
      -1.2276791009400574e-01 1.0631709484742247e+00
      -6.7868906033873388e-01 -7.6498656889010974e-01
      3.8060784639145823e-01 1.6264077730442136e-01
      -4.2486962658597383e-01 6.3132847575742712e-01
      -3.2681221671151944e-01 6.6926750278576197e-01
      6.1888603995373681e-01 -6.7724757936408242e-01
      1.7871156595692969e-01 2.2037811579442165e-02
      3.9905800840852446e-01 5.1588149445693621e-01
      -8.2200885021284253e-01 4.2154237858233268e-01
      -7.1981351593858589e-01 4.4452716632008632e-01
      1.1827671793899497e+00 2.3347308707652215e-02
      4.3792752138397795e-01 -6.3630350252768386e-01
      -5.9118690498417237e-01 -4.3502041384480460e-02
      1.6272120058964187e-01 9.3404871151537144e-02
      8.5868990830825775e-01 -8.6056408507016136e-01
      -1.4010366890905945e-01 1.7070524676152882e-01
      -9.7126588296631922e-01 -5.3484814374720491e-01
      -6.0029468328655256e-01 -4.4406203643213293e-01
      8.3716271525761465e-01 -4.5069350535391650e-01
      5.3387463757403608e-03 6.4788617633643020e-02
      -8.1626540130380132e-01 5.7695966409075261e-02
      -6.9446051878515791e-01 1.8778369380522585e-02
      -1.1164758996763166e-01 2.9727268780056722e-02
      -7.7848316624266589e-01 -2.3549864694598541e-01
      -3.8120409456612864e-01 6.9847121674527909e-03
      -2.4812560549889590e-01 -4.8780112580569232e-02
      2.7489594399599110e-01 3.8456327659035877e-01
      -5.6680064018696907e-01 -3.6662722593481367e-01
      -1.6621766944681565e-01 -1.4644894211174939e-01
      -1.3672080937200528e+00 -4.4643535531557943e-01
      -9.4831406570323393e-02 4.9683170875746030e-02
      7.2131935827147264e-01 5.9964746070915143e-01
      -3.8379699884659606e-02 -4.0329819207632972e-01
      4.6673260170766624e-02 -1.9970128141850083e-01
      -1.5483820333630272e+00 4.5255133196746472e-01
      2.4639828880696460e-01 7.4239554122873641e-01
      -6.0562732207610148e-01 -2.4277645170752579e-01
      -1.1044014019887308e-01 8.9661048062653070e-01
      9.3944762038492169e-02 -4.3436066897252262e-01
      -2.6086363601295159e-01 1.9348657927429122e-01
      1.5781689630579736e+00 8.0438154745541968e-01
      1.1997859681308600e+00 -1.3673153160357243e+00
      -1.5572977988170773e+00 -7.0791206878763238e-02
      -6.0695625392246537e-02 7.1195965487396129e-01
      7.6577092063685348e-01 -1.5231332722639410e-01
      1.6864927994789292e-01 -2.0688819674586618e+00
      -4.8659325699924100e-01 4.2249606726007203e+00
      -2.5160172729470887e+00 1.3458587756430704e+00
      1.1494887419733928e+00 1.4903870967521635e+00
      -1.2769936566079405e+00 1.2283303521277444e+00
      -1.4712111095499605e+00 2.6059855313593299e+00
      -1.8315165406551106e+00 -7.5539579595137540e-01
      7.9972171530722036e-01 -4.6655665747727093e-01
      -1.9042037459774390e+00 6.8034763783612773e-01
      4.0912924035324172e-01 -6.8551680343253241e-01
      8.8653502420463892e-01 -6.7854258038435156e-01
      4.3179190930644387e-02 -2.2023009835519650e-01
      -7.0126244256679210e-02 -6.7686319950517482e-01
      -9.9544065818324501e-01 -2.6832965349691235e-01
      -4.6103103203016133e-01 -1.8924727752496018e+00
      2.9577310987469945e+00 -2.2527939069415055e+00</_>
    <_>
      6.3491647500449888e-01 1.6339339563743496e+00
      1.2435357170950303e+00 -1.3212861119343740e+00
      2.2625272933168289e-01 2.4058616739946288e+00
      -9.2439375414531977e-01 -1.3471116023611449e+00
      -6.6924408904638932e-01 -1.6464602436148024e+00
      1.1471664651645135e+00 4.6543643114191034e-02
      -3.8676552458769736e-01 3.1988054919350826e+00
      -3.1331608241212265e+00 -2.4760006900739842e+00
      1.9508918665432402e+00 3.0549027552824080e+00
      -4.0727777869338944e-01 9.8993150547395115e-01
      -1.1203499577264293e+00 -2.2965855286755250e+00
      8.1540464835473847e-01 -4.8164599722077422e-01
      2.0718581252227164e+00 -1.2007871454250439e-01
      -1.5997267675542910e+00 -4.4215837151924064e-01
      -1.4206177453855273e+00 3.9169122207504986e-01
      -8.0895815701648249e-02 7.9362705304478631e-01
      -2.0238474933971511e+00 1.8737232393117173e-01
      -1.8251744884259155e-01 -1.8855179148950589e+00
      -6.3109505815058375e-01 -2.9030847810769433e-02
      2.2717225267782699e+00 1.6491413143117315e+00
      -2.0215304392025431e+00 1.5464429746311473e-01
      -3.9477394237646757e-01 -1.7429225954599108e+00
      -9.0675214666976936e-02 2.6127783432724699e-01
      1.3104689574147338e-01 6.1897578607282255e-01
      -8.5497672364151744e-01 6.3862582802337164e-01
      -3.7692370159518912e-01 2.1032615757406012e+00
      5.6069974817632562e-01 2.3355409206406708e+00
      1.8760257605945885e+00 1.9141069043755932e-01
      1.1499065365605210e+00 1.6040136486885290e+00
      1.2887239361816574e+00 -3.0676059497578181e+00
      1.4162815468083254e+00 7.2738993746054192e-01
      1.4922233558268527e+00 -3.7622097977887925e-01
      9.6525983324467679e-01 1.4809134156978365e+00
      -1.2298121401956341e+00 -1.0215375254059804e+00
      1.0306500492791848e+00 5.5506541995664582e-01
      2.4951236301601929e+00 -6.9166328918419406e-01
      2.7993955218162165e+00 1.2312675697579525e+00
      -2.0158358732061963e+00 3.7382991074476881e+00
      4.2711970044001801e-01 -1.7194654645123575e+00
      1.7811278449639716e+00 -1.8814008958269837e+00
      -3.1034841419909370e-01 -2.5643324367809326e+00
      -7.5090585764133178e-01 8.4828255147460188e-02
      -1.3420358604356999e+00 8.9007968598225329e-01
      -9.0930577216205122e-01 1.9736724068331354e-03
      1.9794711397877784e+00 8.9237474097164010e-02
      -2.5589514426745619e-01 -3.4026267610291255e-01
      1.2581485908544356e+00 -8.8495702945719201e-01
      2.6479600265910513e-01 -4.3291928886751480e-01
      -8.7878598171959821e-01 1.5967856126869431e+00
      9.5460195182520202e-01 -1.7191601421160496e+00
      7.3946271710699851e-01 2.6837759458630011e+00
      2.3282447972055706e+00 7.8929537473184130e-01
      -2.8714710887950634e-01 1.6437526614031464e+00
      1.7524722763947511e+00 4.3893333471619073e-01
      2.8143545792508901e-01 -5.1301965799447469e-01
      2.2429669163619153e+00 -7.1850475946097736e-01
      1.6052296737527910e-01 -2.5036984721374775e+00
      -1.8470640301087871e+00 -1.2845518165393810e-01
      -4.6608815888725985e-01 5.8501314745059552e-01
      -4.2119228708119738e-01 -2.2337849797422041e-01
      -8.6047474564543458e-01 -3.7988932954668625e-01
      -1.7934722086957833e-01 -1.3064727815151738e+00
      7.9170593336545070e-01 -2.9129486596241644e-01
      -1.0046360202049605e+00 5.5038464087597327e-01
      3.3042192942903648e-01 1.2295253861551321e+00
      2.3504405555484835e+00 -2.4328888268516575e+00
      2.3806673429691934e+00 -5.9826418487155353e-01
      -7.9136387608278749e-02 -1.0839066947035512e+00
      -8.2462404043784843e-01 1.1894217976499339e+00
      2.6396335850056381e+00 4.4778808822716215e-01
      -1.6137687048534091e+00 6.5826743404893096e-01
      -1.6819513048621573e-01 -2.1634931876752903e+00
      2.0148555923599651e-01 2.8271574197366176e+00
      -3.4161919521431572e-01 3.4108790848209486e-01
      1.9795175828277749e+00 -8.9159234337268001e-01
      -4.5007692978372593e-01 4.6104212325156874e-01
      1.9273326441691987e-01 -1.4442727594492664e+00
      -5.1575775893930809e-01 4.8315907952645898e-02
      6.4606048780104863e-01 1.0425115753434187e+00
      -1.4451360538826934e+00 -1.5729705743483069e+00
      1.1226292559976727e+00 1.0675522043814174e+00
      1.3473913735947414e+00 2.0941357329456220e-01
      -3.9194440649267429e-02 -2.1577233688328676e+00
      -1.5904214331098048e+00 5.1216190949140883e-01
      1.8646201628694456e-01 -2.3355303138150090e+00
      9.8058221800912293e-01 -1.6010489185165688e-01
      -2.1112000900841692e+00 1.2912652677421546e+00
      -2.6817030667944266e+00 -1.0367332223306396e+00
      1.0794382881296814e-01 -1.2771019628253863e+00
      -1.2693218298124391e+00 2.1284956841432736e+00
      -2.9872164541880748e+00 -5.2507794090985371e-01
      1.3098419905160221e+00 -5.0836385691677866e-01
      5.3409216944113624e-01 -2.2505996651420272e-02
      5.9021232170243487e-01 -1.2851044282336435e-01
      4.7445284688692774e-01 -2.1684072317124752e+00
      -9.2989482853165539e-01 9.9461261869009565e-01
      8.5222557136316845e-01 -4.8349302696568863e-01
      1.3579744509926714e+00 7.3111323380576521e-01
      1.4392361374710170e+00 -6.9070403310235770e-02
      -2.6113096321158175e-01 -2.3539742226117037e+00
      1.0114847625042184e-01 1.5215507105319488e+00
      7.6614873115583459e-01 5.1042003830616767e-01
      -3.0826145584786632e-02 2.1926396678202262e-01
      6.2660543580849659e-01 -3.4469928898034913e-01
      7.3456307928503337e-03 2.7143694760396291e+00
      -2.8976452552847398e-01 2.2425235971347433e+00
      -5.3578838436236689e-02 -1.0434803598552203e-01
      2.2186861749946849e+00 1.0608533606128479e+00
      -1.1450137232484809e+00 7.9353541100630165e-01
      1.6701588484251679e+00 2.3751543538650437e+00
      1.0798269659970106e+00 -1.3989641688514309e+00
      4.4680393049247047e-01 7.6779061653301454e-03
      5.0409372183990597e-01 1.0669286233442061e+00
      4.2654724315198601e-02 4.7394153333017880e-01
      4.6257696176033547e-01 2.3161189192802651e+00
      1.2839030014624194e-02 -2.1568580592421793e+00
      -7.0871493483345660e-01 -1.6658621527320174e+00
      9.4898007870117795e-01 -2.2476203114988724e-01
      -9.2561165888481400e-02 1.0978663947847256e+00
      -6.6852506031719749e-01 -1.3594667474345303e+00
      6.8609883008395045e-01 1.6459284846793246e-01
      -2.3038983642798122e-01 2.4931001472051504e+00
      -1.3285131150470071e+00 -1.1045839126010193e+00
      -1.4547651680529494e+00 -6.8029145847601269e-01
      1.3395300222038247e+00 -1.4965528413046508e-01
      -1.1868588826763318e-01 -1.7993820231688473e+00
      3.5586872769258510e-01 7.6744711906806251e-01
      -9.2036113039015588e-01 5.8473321822207514e-01
      -5.9828016856284705e-01 2.2142815880145514e+00
      6.4809744019279206e-02 -1.8759548870881166e+00
      2.6282589760105495e+00 2.6607336666302084e-01
      2.5455181574371215e+00 2.2359601815578531e+00
      5.9453278911656637e-01 3.5049009133949244e-01
      -6.8939099573168705e-01 9.7054247671406624e-01
      -1.4452670363934816e+00 -1.0921979448962122e+00
      9.2103738914893540e-01 -1.0678327021508007e+00
      -5.3452469399476499e-01 -1.0067135118378505e+00
      -6.5209437690600336e-01 8.8309163317331840e-01
      -7.6503265189618197e-01 4.9159669142103785e-01
      -1.6238497622065724e+00 -1.2936694113352323e-01
      -2.4714756318659141e+00 -3.3487381399977828e-01
      -6.8958011940799135e-01 -1.0595737126980880e+00
      8.0110005651699312e-01 2.2705584649884583e-01
      1.1062446684825309e+00 6.1695615242459340e-02
      3.6712957500242005e-01 1.6274551967758073e+00
      1.6859945314068838e+00 5.3828415262021623e-01
      3.5611169567915701e-01 -1.6117251653033400e+00
      1.5359063520706051e-01 -1.0930692491366150e+00
      -3.2306046116361126e-01 -1.3006847965196282e+00
      1.4227725257756170e+00 -8.9790695834125023e-01
      -8.1522981215160617e-01 -1.2793625647803888e+00
      -9.0444869260228722e-01 1.6400471774360736e-01
      -4.7111630744998312e-01 -5.6438616438709621e-01
      -7.9654607719247872e-01 -4.4243411566748997e-01
      -2.1816195700691661e+00 4.0496588635650177e-01
      2.0479492699568969e+00 1.2620722356032696e+00
      -1.3992743911655625e+00 7.5687951635175477e-01
      -1.6045167039943447e+00 -1.6193657852907741e+00
      1.2050532429256160e+00 7.4493085999711328e-01
      1.0652921907852284e+00 2.3592180373117229e+00
      1.6442935044963206e-01 -2.1609602508333792e+00
      -4.4623026123457338e-01 -4.7508576215527948e-01
      4.4098482803046130e-01 -3.0937944090768577e-01
      -2.7443790794391778e+00 -1.0676173298159908e+00
      2.6942328391217996e+00 6.0048108863764726e-01
      -1.2453077226188036e+00 -6.7848349462556606e-02
      1.4609607793377675e+00 5.1664695782557279e-01
      1.7025936090496816e+00 -8.2051634776088667e-01
      -1.3400689717974812e+00 -1.2566095420316385e+00
      -2.9251315765971233e+00 6.8996565848977864e-01
      -9.8747039220235311e-01 -2.2258310016427809e+00
      6.8582498275251580e-01 2.0254267969704784e+00
      1.0023479074306345e+00 1.5928895994260244e+00
      7.8030510457160762e-01 -3.3837070395674312e-01
      1.5616185757043493e+00 -2.1914505445716554e+00
      4.8136666857399008e-01 2.6838804241454404e+00
      1.2564076965248136e-01 1.0233057428342118e+00
      5.8767042496346966e-01 2.3603632305322270e-01
      -1.5219250339298254e+00 6.0418589933008755e-02
      -3.8362409418075849e-01 -1.3144584079336790e+00
      -8.6455752850513035e-01 8.6209763259970651e-01
      -6.2079456855328308e-01 1.9804608551233871e-01
      7.3837967697400320e-01 -9.9811409802626982e-02
      1.4333133017713295e+00 1.1961712194759049e+00
      2.4109905551867830e-01 1.3197191969736022e+00
      -3.5840408333914564e-01 -2.8284403429407728e-01
      8.3165515386224798e-01 -8.3462889875991109e-01
      4.5598540634402648e-02 9.7354560262876433e-01
      1.2337565510563842e+00 1.1086263458605394e+00
      1.3034186697590304e+00 6.4429183639035970e-01
      1.0671920637605008e+00 -8.4665560483048219e-01
      1.1449414346387692e+00 -1.9142061203423580e-01
      -6.8705629089683251e-01 -9.9828650058779178e-01
      2.3395967296662928e-01 -4.7912769617168194e-01
      9.4707857264852391e-01 1.8332122935412991e+00
      -9.7574890634207812e-01 -4.7116309152990749e-01
      -2.1993146485366535e+00 1.0802889078148310e+00
      -2.5764769117224634e-01 4.2279450657905959e-01
      -5.0793079085920978e-01 -1.1742332548496319e+00
      1.6097415730708464e+00 3.8385222793208990e-01
      8.1310947192499772e-01 1.5789413697466803e+00
      8.3598372327417070e-01 4.0674952486058641e-01
      6.0099631966796116e-02 -1.5499176012705060e+00
      -1.5189133077757226e+00 1.9905227329294323e-01
      -7.2122924148888701e-01 -1.6071127409898320e+00
      7.3547932233460900e-01 -2.2761168978705570e-01
      -1.6998946941104844e+00 7.4325543840517139e-01
      -2.2989739119816828e+00 -6.6431908269158824e-01
      1.6160372643099035e+00 9.7534950707050583e-01
      -3.7383269697033278e-01 4.6802603097410084e-01
      -5.5461495125651794e-01 -1.9382202903794492e+00
      8.3306570415854320e-01 -1.8721495352941564e-01
      2.5181247252526919e+00 -1.1661961627338266e+00
      -2.0296716121488796e+00 6.7540461148532308e-02
      -1.6937908386789631e+00 1.3576642604356366e+00
      -9.4022483475452689e-01 -1.0467849187994963e-01
      1.6316346047244479e-01 4.8213492555916321e-01
      -6.9163961359570059e-01 1.3021250772824053e+00
      1.2988027948224732e+00 1.0157952454923191e+00
      8.9856466837521864e-01 1.9812819405384516e-01
      3.4035851975780650e-02 4.5285056648683564e-01
      1.0875212092038204e+00 8.2890853327676217e-01
      9.6554990964922438e-01 -1.3618033108346770e+00
      7.4641124545985749e-01 -1.4497042283597616e+00
      1.5584056702837605e+00 4.8991013414466117e-01
      4.2905910069451197e-01 6.3953266545336207e-01
      -4.2981027579456155e-02 5.1033750940379696e-01
      -1.6192427116139800e+00 -1.5435401840795679e+00
      -2.0335272547543692e-02 -1.4238992334754137e+00
      -5.0854133951594216e-01 5.9521516082600634e-01
      -4.8490667645691196e-02 1.7020277105037265e+00
      -1.4692519829681050e+00 -1.5972776626671603e-01
      6.5386004845167556e-01 1.7738067262168107e+00
      1.0332632596893261e+00 6.0017472402567384e-01
      2.1900199683247590e+00 -4.8503750385403721e-01
      8.7299894357782659e-01 -6.4885241122416015e-01
      1.6858052849067567e-01 4.3622299269964726e-01
      -6.8729447652914299e-01 9.1145857905773253e-01
      -1.0124829076558677e+00 -1.0977399788528088e+00
      1.0097858649059663e+00 1.1359930907016575e+00
      -1.4778983769228085e+00 -3.3921337995658568e-01
      5.7228981103581351e-04 3.6955766235760701e-01
      4.1905275393347524e-01 4.7015329699883895e-01
      1.6901663700131431e+00 8.9234297049334821e-01
      2.5184708158705404e-01 2.0658679448543631e+00
      9.1809354461935044e-01 -4.7687945462146675e-01
      1.0414634606486248e+00 -8.1448812888701116e-01
      1.3680360563020331e+00 -1.0220495946220409e+00
      2.3538995062532644e+00 -2.2947395931446319e+00
      -7.1306642978890208e-02 -1.4009018093673355e+00
      -6.5387079916574065e-01 7.1204969002304719e-02
      -2.4959976818653975e+00 -1.6393264115169963e+00
      1.3751067344435377e+00 3.8164857886848480e-01
      1.7284231482966914e-01 4.9839275817265168e-02
      -6.3973590010739678e-01 1.5947231186025297e+00
      3.7192360566858484e-01 -7.2325968764194448e-02
      -3.6965406261015832e+00 -2.7245283421547741e+00
      1.0439442192535230e-01 3.6013153103296980e+00
      1.7059224612028739e-01 4.9158346709069511e-01
      -3.0308129683342666e-01 1.5268573455732763e+00
      7.8479391487819805e-01 -1.2726134037214905e+00
      5.0822791056659549e+00 -5.9528989200040421e+00
      3.1091218713636932e+00 -7.0364144368827231e-01
      -9.0669562458717612e-01 -3.4478561225674764e+00</_>
    <_>
      -3.0208020402952884e-01 -1.2653568562308193e-01
      -5.3346411065570221e-01 -9.7027412037434735e-04
      -2.1900494167480211e-01 1.6484530631277947e-01
      1.0973265328465830e-01 1.4184013507387225e-01
      1.9656810615590500e-01 4.9017860274730035e-01
      4.4979322250114410e-02 -9.2371325753574196e-01
      -2.4461042764133164e-03 2.0576371908035396e-01
      1.6351070687912844e-01 -1.2942887859288668e-01
      -9.9414327595792870e-02 7.5928831636142846e-01
      4.1470167360455758e-02 -8.0362946395473797e-02
      1.0696722472943322e-01 5.0225481819191464e-01
      5.2829571357882199e-01 -4.6118856323184354e-01
      3.9927095301288873e-01 6.8220311731667671e-01
      -3.5933321638576721e-01 -1.0291374325938434e+00
      -8.2154945324299300e-01 3.6838773867743752e-01
      -2.7102191158792344e-01 8.3583954725601609e-02
      6.6471977167851031e-03 1.9962002225328526e-01
      3.3861318101249253e-02 -1.3144901177178255e-03
      3.6188656590509620e-02 -1.9379397364346126e-01
      2.3158720012072279e-01 -1.8572957296033252e-01
      -4.4153723476422282e-02 9.2355600987567033e-01
      -1.0881194610481795e+00 -2.0673232134055369e-01
      -1.6259653902528926e-01 1.3017377152198834e-01
      9.8083211960029310e-02 3.3140735748825062e-01
      -4.1621400341622337e-02 8.0734654779289816e-02
      -2.5942925922831350e-01 8.0007267023111908e-02
      5.0200496751511359e-03 1.8855682200259863e-01
      3.0479551154889765e-02 6.2486384547240977e-03
      3.7092889697256944e-02 -1.8643628776323570e-01
      2.1855010875976538e-01 -1.8128049860250484e-01
      6.1478992870697871e-02 2.1977397090763959e-01
      -4.1956383348720878e-02 -1.4930110730141938e-01
      3.6118818327369073e-01 -4.5585199120278974e-01
      -4.8127091963631513e-01 -2.7656155494033724e-01
      4.5549721175676955e-01 5.0499061599688355e-01
      -1.1170788134272822e-01 -3.8209106486552452e-01
      1.7494511495466231e-02 -4.6323507537976288e-02
      -5.5218192326394311e-01 5.8218027965561636e-01
      6.1142840810037413e-01 -4.7556447586904171e-01
      -5.1306517501517213e-01 6.7956129660401021e-01
      2.6365815134147491e-01 -3.8969327180137986e-02
      5.0845548644979610e-01 -2.0850134817113283e-01
      2.4008828214373036e-02 -3.0512135766685492e-02
      2.1293917181988958e-02 2.0497610440821074e-01
      -2.6727291587953761e-01 -3.9112991285091186e-01
      -9.1117109763424797e-01 -3.3945840618152051e-01
      -1.4696843827065716e-02 1.3371480606717439e+00
      -4.6530125406823164e-01 -8.1599481898263559e-01
      4.0717085060553043e-01 4.4612224855762961e-01
      4.3453351784222055e-01 -1.5154787975364309e-01
      5.2261138933572160e-01 -1.1899615571261866e-01
      5.0361013127584975e-01 -3.9569533047434124e-01
      -6.1861783565817690e-03 -1.1277129577008369e+00
      -1.5717303721775072e-02 3.9031264897382340e-01
      6.0555386714002246e-01 -2.1079076116836085e-01
      1.1504580710809154e-01 -4.1855908850102808e-01
      -2.6533080097880801e-02 -2.2338505937007913e-01
      4.8639824054115816e-01 -5.2300182549805541e-01
      6.2113044327666278e-01 -3.0997417908360470e-01
      -7.1875491782752121e-01 8.6199330109027561e-01
      8.8922440216268417e-01 3.0469901516503251e-01
      -6.4427619560438590e-02 4.7633546572988447e-02
      3.6329726270256019e-01 -4.5300050432131794e-01
      -4.1308176730903623e-01 -4.5445256445886045e-01
      -4.3403234594767531e-01 3.3870732868999298e-01
      -4.8839435251414078e-02 5.1665689579447713e-02
      -6.4300852142123111e-02 3.3614569469568881e-02
      -4.5599057090762569e-02 -1.1100743422026593e+00
      7.6155960887045307e-02 -2.1854138460092400e-02
      9.7065915619374762e-03 1.1012312860753626e+00
      1.7350734745756106e-02 3.9843399804812954e-02
      5.2621844448157984e-02 -1.3759896148137174e+00
      7.4160309214551245e-02 1.2665759534422008e+00
      3.6924737967962661e-02 1.5408053981789654e-02
      -1.8048864481438283e-02 -1.7277464298694087e-01
      3.3441094862363463e-01 4.6561800094172323e-01
      -6.0628986926501349e-01 -6.3774017634968372e-01
      3.4808796700509997e-01 -4.2377299226837917e-01
      -3.5129383336776115e-01 2.2680928719634907e-01
      6.4763616394354295e-02 5.5053498041976756e-01
      -2.1053289942417504e+00 -2.5289257677462365e+00
      -2.7897795743909741e+00 -1.9169490517771308e+00
      -1.0830963374683060e+00 -8.3208728344134919e-01
      -8.4078092349736067e-01 -8.7070732012166885e-01
      -2.6678868809204053e+00 2.8723416244294575e-01</_></weights></opencv_ml_ann_mlp>
</opencv_storage>
