<?xml version="1.0"?>
<opencv_storage>
<opencv_ml_ann_mlp>
  <format>3</format>
  <layer_sizes>
    32 32 16 10</layer_sizes>
  <activation_function>SIGMOID_SYM</activation_function>
  <f_param1>6.6666666666666663e-01</f_param1>
  <f_param2>1.7159000000000000e+00</f_param2>
  <min_val>-9.4999999999999996e-01</min_val>
  <max_val>9.4999999999999996e-01</max_val>
  <min_val1>-9.7999999999999998e-01</min_val1>
  <max_val1>9.7999999999999998e-01</max_val1>
  <training_params>
    <train_method>BACKPROP</train_method>
    <dw_scale>1.0000000000000001e-01</dw_scale>
    <moment_scale>1.0000000000000001e-01</moment_scale>
    <term_criteria>
      <iterations>1000</iterations></term_criteria></training_params>
  <input_scale>
    4.3337816460463880e+00 -5.4170096207291226e+02
    2.9925121057739878e-02 -4.0261591308456444e+00
    1.6804066037956904e-02 -2.5171226652364669e+00
    1.6652943767383330e-02 -2.7001116218416055e+00
    1.8437474953752590e-02 -2.9806025442566955e+00
    2.1416136435277022e-02 -3.2062595823266147e+00
    2.3700910924692981e-02 -3.3533668151971185e+00
    2.3076091116108227e-02 -3.2766490826685564e+00
    2.1534676513071241e-02 -3.1774396128282532e+00
    2.1191469120209284e-02 -3.3557702622921388e+00
    2.3838119493588224e-02 -4.1778707274176803e+00
    2.9487204831842587e-02 -5.5946689338460285e+00
    2.6004517579833544e-02 -4.8665514111944237e+00
    2.2641854292885556e-02 -3.8134831461850305e+00
    3.7335265650128471e-02 -5.3350147667402670e+00
    9.2179147020876950e+00 -1.1522535681051259e+03
    1.8752227053870282e-01 -2.5016900466198930e+01
    2.4996577257964721e-02 -4.8644200218674705e+00
    2.4763182746629808e-02 -4.2771398975197208e+00
    2.7694709490061621e-02 -3.7635930053293394e+00
    3.0377036152040841e-02 -3.8438460738083968e+00
    2.9385672775115376e-02 -4.2039417795287584e+00
    2.3517852119427616e-02 -4.0440064735663857e+00
    2.1545335325933612e-02 -3.9978451170580875e+00
    2.0556559656712950e-02 -3.5465212948081692e+00
    2.2027838695465367e-02 -3.1763657814240345e+00
    2.6362470485671970e-02 -3.3373263920221512e+00
    2.7300373231030399e-02 -3.5059445106144129e+00
    2.7400852804831632e-02 -3.9663826164395179e+00
    2.3130007987620105e-02 -3.9820602427469929e+00
    2.0587593714349692e-02 -3.6532651861425149e+00
    1.5995975992277167e-01 -2.0929856492225284e+01</input_scale>
  <output_scale>
    5.2631578947368418e-01 4.9999999999999994e-01 5.2631578947368418e-01
    4.9999999999999994e-01 5.2631578947368418e-01 4.9999999999999994e-01
    5.2631578947368418e-01 4.9999999999999994e-01 5.2631578947368418e-01
    4.9999999999999994e-01 5.2631578947368418e-01 4.9999999999999994e-01
    5.2631578947368418e-01 4.9999999999999994e-01 5.2631578947368418e-01
    4.9999999999999994e-01 5.2631578947368418e-01 4.9999999999999994e-01
    5.2631578947368418e-01 4.9999999999999994e-01</output_scale>
  <inv_output_scale>
    1.8999999999999999e+00 -9.4999999999999996e-01
    1.8999999999999999e+00 -9.4999999999999996e-01
    1.8999999999999999e+00 -9.4999999999999996e-01
    1.8999999999999999e+00 -9.4999999999999996e-01
    1.8999999999999999e+00 -9.4999999999999996e-01
    1.8999999999999999e+00 -9.4999999999999996e-01
    1.8999999999999999e+00 -9.4999999999999996e-01
    1.8999999999999999e+00 -9.4999999999999996e-01
    1.8999999999999999e+00 -9.4999999999999996e-01
    1.8999999999999999e+00 -9.4999999999999996e-01</inv_output_scale>
  <weights>
    <_>
      -3.1957418966026219e-02 -2.7756079521405069e-01
      8.1495430798024501e-02 -3.8619907802282438e-01
      8.9074680111930982e-02 -2.6248264032456814e-01
      4.1197241259985679e-01 -1.4146327898618619e-01
      9.3536652096213771e-02 2.3101025590105750e-02
      -1.4704701140204515e-02 -6.4682097774528180e-01
      -4.0220655508249081e-01 -1.4681521821188376e-01
      -2.9923314188355149e-01 -2.4900177696987771e-01
      -1.0478709037135759e-02 1.1443338241847895e-02
      4.3540889315661158e-01 -1.9108192836873411e-04
      5.3477056957272640e-01 -1.9637182328004200e-02
      2.4048013468964774e-01 4.8197647231583712e-01
      -3.7289007046721667e-01 -6.6614610091498550e-02
      7.4066709769826256e-01 -1.9174713167777618e-01
      -5.6296789245217660e-01 -2.7999147231819377e-01
      2.0021441603614920e-01 3.8395422148068586e-01
      -2.9817796327812189e+00 9.6572747154397642e-01
      1.5667229896446688e-01 1.8002514276551007e-01
      -6.7405470012866064e-01 4.1636790290422337e-01
      1.5077564756951924e+00 3.7935296821794490e-01
      -1.5154439412016263e+00 4.4912658975109804e-01
      1.0996542402130145e+00 -4.7204374010970446e-01
      1.8256655165446845e+00 4.8950661860879913e-01
      -9.5418404565605541e-01 8.1871720724918207e-01
      7.8610026960787538e-01 -2.8992180777786025e-01
      8.2170285019455391e-02 3.9776148276965506e-01
      1.9200503082596134e+00 3.5492642766317634e-01
      -2.0114959490898293e-01 -1.6863243386696318e+00
      -8.2873602121478068e-02 1.0541573731353406e+00
      1.7552311713423999e-01 2.4328944927616600e-01
      8.2830297005690878e-01 9.9670994448346373e-01
      -1.1526333501583073e+00 2.4348780876260570e+00
      -2.2193893938858209e+00 -3.1797613755226928e-01
      -2.7280209275878142e-01 6.5284927196197062e-01
      -1.1852598853099586e-01 3.0748369488374361e-01
      8.1430846304700655e-02 -4.2736343338922883e-01
      -2.2645891807139220e+00 1.3357642802936296e+00
      -5.9295924549733081e-01 -9.0719984004437793e-01
      7.3691179506179094e-01 8.7904525373793663e-01
      -1.3048121818219456e+00 5.8289878888509405e-01
      4.7235828899465304e-01 4.7091468039199830e-01
      -7.2460683654289004e-01 3.6858924928711001e-01
      2.6505222518475517e+00 1.9953390598734816e-01
      1.0772655240917390e+00 -2.1719466908025140e+00
      -6.2833793488886935e-01 2.8823075176058366e-01
      3.0807886176992949e-01 1.1377105492924437e-01
      9.4476700581946427e-01 1.8828727592082994e+00
      -4.7687332103638103e-01 2.3952651720366038e+00
      -2.2361854020655056e+00 -8.8938594908233803e-01
      -5.6458390065560993e-01 9.0201895079599770e-01
      2.8302014649613005e-01 8.9423335852651320e-01
      9.8162939145314509e-01 -1.0683054858220058e+00
      -1.4461884986239539e+00 1.8705357271711709e+00
      1.7613421441510829e-03 -6.4668492103102021e-02
      1.7083922729455023e-01 -1.6306869200988082e-02
      -1.0221299491043410e+00 -2.6649451533679391e-01
      4.7574397334003826e-01 1.2967326449574215e+00
      -4.0908596709065853e-01 1.2791295522365138e+00
      2.0280473213714703e+00 2.0792244432915391e-01
      1.3299115488991273e+00 -2.1850719119555881e+00
      -3.8941112733402061e-01 6.9797770885538002e-01
      8.7342433326003910e-01 -1.9958977982762199e-01
      1.5412011046675964e+00 1.3709887164706638e+00
      -9.8339797186784339e-01 2.6908274934493801e+00
      -2.1153399628182701e+00 -2.4316138396827905e-01
      -2.5881400482151196e-01 1.1820440974234443e+00
      2.7660620154691778e-01 1.0035907016270889e+00
      1.2249416489332843e+00 -2.5181457865040485e-01
      -8.4954424146940088e-01 1.1415582482357252e+00
      9.1429622584256209e-01 4.6990142327201501e-02
      -3.7365795075675712e-01 -1.2661261583888166e+00
      1.2821111285390166e-01 -6.1791783030041091e-02
      1.7481897577565725e-01 1.5021681354033731e+00
      -1.4863385545293079e-01 1.3538032383505677e-01
      1.9650501552064727e+00 9.3031998201433919e-01
      9.2962751637979069e-01 -2.0698657620340950e+00
      1.5593114093811844e-01 3.6391553053189990e-01
      6.6466797990490745e-01 1.6812189293635746e-01
      1.8698657372958878e+00 2.0052701639990456e-01
      -8.0536778864060821e-01 2.1350911450525318e+00
      -9.1297051628522030e-01 -9.2676996354796548e-01
      -1.7582145908125701e+00 2.1267907476736231e-01
      -1.9840898822449776e-01 -4.7510203372545562e-01
      6.3282136766695918e-02 7.9816681379614107e-01
      -4.1651437803497166e-01 2.9616051870499132e-02
      1.0297294707162694e+00 1.4932822395362770e-02
      -1.6983291017475857e-01 -1.7009775897951587e+00
      -5.0733655702920810e-01 -3.2813088994361350e-01
      1.2391770637634395e-02 2.8895644096475426e-01
      -1.3096621054328268e+00 -8.6748978443005842e-01
      -4.4714001267948067e-01 9.1645880120493972e-01
      2.7738957547104942e-01 -2.3206157528912619e+00
      6.2122884128730327e-01 5.3350191872455266e-01
      6.2711796611780013e-01 4.9274104571392713e-01
      1.1691688485578107e+00 -1.3713912567533346e-01
      -6.0643046465197914e-02 9.9739265546798750e-01
      5.4877825583498552e-01 -1.4766228743001284e+00
      -1.8505534725250095e+00 -1.1829056952132395e+00
      -3.8663781743094999e-01 -2.4845637249536978e-01
      -1.0172898157111914e+00 5.2887097149662464e-02
      -1.5074266372340439e-01 1.9182109815752829e-01
      1.4019823865881464e+00 -1.1036735177500137e+00
      -2.3947446899966798e-01 -9.1049106777299738e-01
      -8.7617228746510212e-01 -2.3088681772579687e+00
      1.4779871922884023e+00 -7.2077157002140413e-01
      -3.2007340025080349e+00 1.3578930537321914e-03
      -2.6370175870089687e+00 -6.4998650956743620e-02
      5.8565463452075653e-02 -3.1897945175462272e-01
      -2.5637633880092608e-01 -5.8905757134208869e-01
      4.9120939844272937e-01 -3.5158453859224253e-01
      -4.4729224054778777e-01 -4.9461800739640482e-01
      4.5356884325458013e-01 -6.1945557389042345e-02
      1.6577877220895185e+00 -1.2160597991174746e+00
      -8.8100780194894512e-01 -1.7361273731683950e+00
      -3.0765734336958195e-01 -2.7507236209539693e-01
      -7.2252673396434053e-01 -1.1312567533433220e-01
      -1.1169288368225679e-02 3.1530300255899851e-01
      -9.4691094304447465e-01 -1.2718991568708840e+00
      6.7078152454316120e-01 5.6419767077209604e-01
      -5.9028840336784583e-01 -2.4895662410044705e+00
      8.8901351785040184e-01 -5.6797322656725147e-01
      -2.3092689025313122e+00 7.2898290313157754e-01
      -2.2365969749629198e+00 -9.2493936665311127e-01
      -2.7100431641887569e-02 3.2363198352864053e-02
      -2.4742749393918378e-01 -1.8379363502067443e+00
      -5.0284949704308846e-01 -5.1732866507616238e-01
      -1.7633826632110032e+00 -9.7023262976043789e-01
      8.6639934442258337e-01 -1.0446645711232083e+00
      2.0357189282762560e+00 -3.5348229674947029e-01
      7.1288483540181147e-01 -1.3188514392535782e+00
      1.3831153033522220e-01 -4.3335769232975624e-01
      -9.4393924201040635e-01 -4.9377200582874020e-01
      2.8193685342041230e-01 3.0828932022757838e-01
      -1.1842274881292219e+00 3.6200809308135407e-01
      -5.2489277886711849e-01 1.0186753914676063e+00
      -4.1655125865006171e-01 -2.0294094133348155e+00
      1.0195972566304475e-02 -1.5838870198293007e+00
      -3.4792037612092697e-01 7.4329137911222665e-01
      -1.2031618884435145e+00 -1.9287843503027029e+00
      -4.2344615922519457e-01 1.6503800453770834e+00
      -2.9972780989476000e-01 -8.1520484907160895e-01
      -3.3285130200311963e-01 -9.1177400716308532e-01
      -1.8806984781117788e+00 -6.6531049270025022e-01
      2.4754347570290980e+00 -1.3699711259260612e+00
      1.7023154532194058e+00 -3.1888535377885724e-01
      9.6180620671984962e-01 -7.6836481154307634e-01
      7.2704434475339952e-01 -6.5940383020547411e-01
      -9.6753174486289395e-01 -1.1650300700538088e+00
      7.4879833827480269e-01 -3.2823356954800692e-01
      1.3613602827936611e+00 1.0388189812555988e+00
      -1.7044921200951137e+00 2.8212222508521662e-01
      -3.1989768404471763e-01 -5.0919202894747408e-03
      1.9257052669318411e-01 -1.2884005984980009e+00
      1.2915159810042076e+00 1.2577242268678464e+00
      -1.7256101182039793e-01 -1.5825427062031512e+00
      -7.8274385794608192e-01 3.0365740556610037e+00
      3.3433567911898010e-01 2.3205559526219868e-01
      6.3448685370496605e-01 -1.3671348138879920e+00
      -1.0379878363314208e+00 -6.9789252587287749e-03
      2.6160082414733190e+00 -1.8487846669493717e+00
      2.0525933125243001e+00 1.5152435124983873e-01
      1.1470129321647482e+00 3.4765400558031241e-02
      4.1224629009380725e-01 -9.1458868885377320e-01
      -1.3970068723692439e+00 -9.2261834270275989e-01
      5.9777525556105515e-01 -7.1283218118864855e-01
      2.1643831772054792e-01 6.3794737700472315e-01
      -6.2781057106150018e-01 -1.1548404072962120e+00
      5.9740426374608080e-01 1.5950093650247481e+00
      -1.2807059779787886e+00 5.5791236555781443e-01
      1.7456894251872859e+00 9.9171195995161179e-02
      -5.8395419310499863e-01 7.0100002463527611e-01
      -5.8296019844725167e-01 1.8150479139993436e+00
      3.8965243355710627e-01 2.8485697330843351e-01
      4.1989601549892186e-01 -5.2070096612687744e-01
      -8.3480376970363512e-01 -6.7119822213022540e-01
      -7.1069302079106222e-01 -2.6144791675328771e+00
      -5.6955536397870776e-01 -2.0154822107374723e-01
      1.4060992215963588e+00 3.5017605531173018e-01
      -1.9707238926256873e-01 -6.8875310924094324e-01
      2.5765405727400192e-01 -5.2932560481000501e-01
      6.0083292951256106e-01 -1.0235968259989803e+00
      1.9483006011325524e-01 -3.4162550835599464e-01
      1.0759265715569861e+00 7.5673864772417943e-02
      -4.0246067627259553e-02 1.9111570092955958e+00
      -1.1764733247432662e+00 8.1407468443584208e-01
      1.3670204873830794e+00 -1.1242722025544818e-01
      3.9112691158058495e-02 1.5080341235947432e+00
      -6.6239422783797908e-01 8.2686203548412196e-01
      6.5106329105920258e-01 6.9827286296502700e-01
      1.8774690738086827e-01 2.2565544085921324e-01
      4.7046233778841079e-01 -1.0438785842734295e+00
      8.7627890177781831e-02 -1.9156281437245620e-01
      -1.0107921661938442e+00 -1.5195422400310585e+00
      -1.1505158067758957e-01 8.7464315982868579e-01
      8.7749522505760813e-01 -4.4686762676721964e-01
      9.3143637627666354e-01 -2.0014393070975811e+00
      8.6094582579199808e-01 -1.0718634594803651e+00
      1.1639470570953003e+00 -1.3395669856002571e-01
      -9.7222131765014619e-01 6.1049674313941682e-01
      -1.7889137393866339e+00 2.5013297009874411e+00
      8.1265516394998083e-01 3.3485096676397058e-01
      2.7136341204025709e+00 1.3167682679933943e+00
      9.9277048520767031e-01 8.8547378002716925e-01
      1.5940750276102944e+00 2.3011788186744426e+00
      1.4666474917074661e+00 2.7295983237795413e-01
      6.0048784850234072e-01 -4.3573231894434211e-02
      -2.8791084606413941e-01 1.7771039834001612e+00
      5.3983008679985467e-01 7.3827140047363793e-01
      -1.2588083663416399e-03 -7.4503403716685856e-01
      3.8942905689555510e-02 5.1123927820652237e-01
      3.0291437641188468e-01 -4.4044229769915538e-01
      9.5584002398301768e-02 -1.2958786009233212e+00
      9.0522634845567673e-01 -9.4604999624549369e-01
      -4.6241955468148382e-01 2.7872209910666179e-01
      -1.3584150048251966e+00 6.0910424242220940e-01
      -1.1803203681822285e+00 1.4904607260614000e+00
      8.6768833142794233e-01 1.6809074248001121e-01
      2.3161008142936956e+00 1.8498007920445603e-01
      8.1631485024474182e-01 9.8847961840109455e-01
      1.6556813737556058e+00 3.1519040060164855e-01
      -1.6918894431492712e-01 7.7851890999303106e-02
      -6.6563998182892922e-02 1.1895499585657958e-01
      -5.1059150331867587e-01 2.3968427805354890e+00
      2.3470500265054700e-01 -2.0152294491751932e-01
      4.3415310231941084e-01 7.0313184630773617e-01
      1.0866635284304371e+00 9.8770861280674749e-02
      -8.9862474420335592e-01 -2.3143556459933942e-01
      -2.5453684902149587e-01 -2.2439000462855796e-01
      1.0770134675334420e+00 -5.3837014856297571e-01
      -1.0603366151638389e+00 1.1403208857382812e+00
      7.5532844333982219e-01 -1.7971738121091993e-01
      -4.2473784355134181e-01 1.9771632802697531e-01
      5.2506276235738258e-01 -5.4530080542525228e-01
      1.1799372152077350e+00 -5.1001229789492464e-01
      5.4526855463637702e-01 4.2539750030181667e-01
      -5.5674080698725159e-01 -1.8596612892639672e-01
      -4.8565765821096230e-01 4.8214375793264963e-01
      -6.7859075986125639e-01 -6.7390007274911945e-01
      -8.9773223624788900e-01 1.0484408665883045e+00
      -1.0254243299705961e+00 -7.5092780778300050e-01
      6.1111747238309189e-01 2.2862507069417204e-01
      -6.4725782990759662e-01 7.3363231482659863e-01
      -1.6838056008634378e-01 2.7678890080225832e-01
      -1.5810717509609767e-01 1.9853939040868226e-01
      1.5853915309299732e-01 9.7527404830353293e-01
      -5.4234350387638708e-01 1.2330556813344623e-01
      4.1621904356425765e-01 -1.1837924143060816e-01
      -4.5170581915278514e-02 3.6368149327513521e-01
      -4.0256732004084061e-01 4.9187487627468655e-02
      7.0987048502760414e-02 -2.1814440079517244e-01
      -5.5050160133009694e-02 -7.8746926601293599e-01
      6.1134004821400523e-01 -5.2410648187691589e-01
      8.5649590229673975e-03 -7.0127077374456603e-01
      -1.4348757735471787e+00 1.2015205280032720e-01
      6.7112166727688927e-01 9.9294277806209053e-01
      -3.1523299142258099e-02 -1.2085309573191615e-02
      6.7183851067368028e-01 1.8693778175595899e+00
      2.2474444133411859e+00 2.2689661451426327e-01
      6.3526153208424407e-01 -2.8960535187174413e-01
      -2.3677073881839248e+00 1.3549651072607638e+00
      7.3390947819199914e-02 -5.2129522055617472e-01
      7.6384522313398229e-01 -7.2134826331533131e-01
      -7.9222842901855361e-01 1.6236285397290044e+00
      2.0816264051645144e+00 4.5452374920320326e-01
      -1.1707483731250383e+00 1.0220924155534405e+00
      -1.3369923631936260e+00 -2.1167385490750390e+00
      5.0261376872426022e-01 4.2468791506883663e-01
      -1.2262717528578326e+00 2.2836405114257441e-01
      1.2612581211737792e+00 -1.3310792556906816e+00
      -1.4005675492356386e+00 1.4007282926002322e+00
      -6.5517704401883126e-01 -2.4156811191065173e+00
      -6.2502706946103415e-01 -2.7037161662844383e-01
      6.2991303464907877e-01 1.4187413943042038e+00
      2.0856498922663538e+00 5.7139014044374414e-01
      6.7232265607225639e-01 -9.5452707894759861e-02
      -1.2357611181900678e+00 8.0954817674274715e-01
      2.7364865390837489e-01 -2.1578593164886437e-01
      7.8658053629560243e-01 -6.4197516825376044e-01
      -5.5031226804789057e-01 8.8874499046332889e-01
      1.4975433953880786e+00 3.3006013680047823e-03
      -9.7433974208955343e-01 9.4770888251348273e-01
      -7.4193789666823640e-01 -1.3256737659873283e+00
      1.4582360957981184e+00 1.3168149959432760e+00
      -1.6166629007753350e-01 -1.2298703837529529e-01
      1.3788632863670882e+00 -1.3776853928244912e+00
      -1.5182002259506204e+00 1.2088325068152825e+00
      -3.2520763533783087e-01 -1.3672586515970326e+00
      -1.1998420131533170e+00 -2.7281859505840272e-01
      7.3748816283539798e-01 -8.0498478652794669e-01
      4.5930250187669946e-01 1.1323510557863217e+00
      -2.2136916847957255e-01 -4.9283108615027821e-01
      -8.4725228733175195e-01 8.2919333064261150e-02
      5.2112886968214767e-01 -4.4277080502085581e-01
      7.1477800786071255e-01 -2.2433565596147542e-01
      7.5770274165748375e-01 -2.2748928625355592e-04
      9.6605496852795389e-02 1.7213279341424706e-01
      -1.1215558561793395e+00 2.7371153889657984e-01
      -1.2670090235637640e-01 -3.9723276855035211e-01
      2.0533465530882609e+00 1.1005141585670124e+00
      4.7454845327185058e-01 -1.5535070408966214e+00
      7.9985230265458659e-02 -1.7622464198967222e-01
      -1.0056389519294866e+00 -1.5011645951892710e-01
      9.1584486758481065e-01 -6.6668192835235696e-01
      -1.9318888866180297e+00 -7.0934051229637052e-01
      1.3192692642294921e+00 -8.9290863431792056e-01
      4.5264448437793620e-01 3.6689740415408645e-01
      -4.9391160364667380e-01 8.0459954436194747e-02
      -1.2469668876454923e-01 -8.2716141089444517e-01
      4.7099305841768746e-01 -8.4983692285193202e-02
      2.3959320166070305e-01 7.7119979877329192e-01
      -9.2137692254349934e-01 -7.5955051135987897e-02
      9.3196724442450932e-03 -4.3205629106400989e-01
      -1.9960264477390213e+00 -7.6794643779520125e-02
      1.5192532435624300e+00 -1.8751837939044874e-01
      2.5703763883013284e+00 -4.4012034711993892e-01
      -5.0360426606771369e-01 -7.7953253923355559e-01
      -7.2114928503741382e-01 1.6048478374785505e-01
      -1.1249583078340051e+00 9.1945728541223326e-01
      -1.8670881803532027e-01 1.0009201543627677e+00
      -1.8434564117705199e+00 -1.8500650833124914e+00
      1.3848058478676153e+00 5.7485278422346919e-01
      8.8157940248144961e-01 1.4409005664235277e+00
      8.2702179082082594e-01 1.0192134718909744e+00
      6.6758109204141636e-01 -1.3820947142458377e+00
      -1.6730536230229875e+00 1.1333510249827896e+00
      -1.8859288475827067e+00 -1.1115356631034810e+00
      -2.3810400693827360e+00 -4.9297564987797005e-01
      -3.9841997169704563e-01 3.2434538202202673e-01
      -1.0422543809944351e+00 -5.8401159636348299e-01
      -4.6100429071664589e-01 6.2593224379925161e-01
      -5.6666917676297546e-01 6.8187637575300275e-01
      1.2380052423479211e+00 1.5155047273568523e+00
      -3.2740523577154641e+00 -9.8653292517331681e-01
      -2.0346705196097039e+00 -4.2317907786391717e-02
      -2.2992180249456764e+00 1.2077219306896352e+00
      -8.2421525638350435e-01 -7.3811106028008155e-01
      -7.1145552879794338e-01 -2.9122413862929175e-01
      -9.6430160446727686e-01 1.5035355949762454e+00
      2.0673392615723634e+00 5.4048793634043996e-02
      8.1213898309831292e-02 -1.3548821585999520e+00
      -1.0801220390386055e+00 1.6014063565327002e-01
      7.8361441819835689e-02 8.5654022930629084e-02
      -2.5006461935319049e+00 9.6697511927666402e-01
      -1.4666604640130934e-01 3.5916278326144147e-01
      1.6504316054099493e+00 -3.9788303703919209e-01
      -9.6616113012840371e-02 -3.5946049295338292e-03
      2.0325823144014196e-01 1.4550938526036454e+00
      1.3029119128083180e-02 6.1179885379929522e-01
      1.0259287718480237e-01 -2.7146713262537092e-01
      4.7629762399113165e-02 3.6545115376042614e-01
      -1.6201732549877743e+00 7.9498951377500870e-01
      1.2503420368492735e+00 9.0183425990690813e-01
      -5.8570403843664209e-01 -1.8477499759014246e+00
      -2.7299141223384500e+00 3.2648172647381996e-01
      1.1167421777000894e+00 5.7261807968483669e-01
      -3.4193657043233289e-01 -2.5211919221867971e+00
      -9.4014282759899481e-02 1.2955798429130394e+00
      2.9580792353259295e+00 9.7283999038926672e-01
      -1.2724910463542285e+00 -3.4650400261975287e-02
      4.0237478553526988e-02 2.2992761502274719e-01
      2.1743033881653222e+00 -5.4282239752435280e-01
      1.1161686570596159e+00 9.0130922224468435e-01
      9.3490604812025457e-01 3.3604759943959817e-01
      4.8097488239053315e-01 7.5213452009805082e-01
      1.5014400834776473e+00 1.1416255779839837e+00
      2.0726676116513678e+00 2.6013677730693596e-01
      -4.3240342895407624e-01 -1.3973343605881337e+00
      3.8627908544242895e-01 5.6866781135312483e-01
      -1.1548080186115721e+00 -1.7871529980747476e+00
      -1.5726865250937561e+00 -2.5455334783696065e-01
      -1.0053709387358632e-01 1.5146154390858502e-02
      -1.6110333475432030e+00 -1.3178624869914657e+00
      -4.0703474290506741e-01 7.6278741694157592e-01
      3.3506416112476134e+00 -1.8977996701379779e-01
      1.1689811459519055e+00 5.4946817304326012e-01
      -3.1462724453100233e-01 4.3692332980300852e-01
      7.5613185853682086e-01 -6.1517482472941132e-01
      -5.5550887739108790e-01 1.5619772039151680e+00
      1.3559800802439408e+00 -7.6267439890706779e-01
      -3.8682817328227387e-01 1.2926801342194358e+00
      2.0857788776815673e+00 3.1118481197300847e+00
      2.8835717755563337e+00 -1.5243155730305968e-01
      -1.2234516014607962e-01 -1.7547828900204594e+00
      2.8973742446820405e-01 1.0477390544934388e+00
      -1.0241002217156414e+00 -2.4610600131466600e+00
      -2.0023282705897905e+00 -4.2551297061066910e-02
      -1.9026225575113601e-01 -2.3390959908318434e-01
      1.6007169073525918e-01 -1.2977562297602883e+00
      -3.4592848552428318e-01 2.6978198460586378e+00
      1.1882093384531451e+00 3.3883755722580927e-01
      -6.9480028418162698e-01 2.4387169709363990e-01
      -1.3644230362911467e+00 2.7348852664612922e-01
      1.2376351007246360e+00 3.8350892403073994e-01
      -6.5118388067048105e-01 1.9721381092055317e+00
      7.8690467479453179e-03 -8.7858372663907808e-02
      1.5166349821492786e+00 1.4599636247190129e+00
      1.6231790486498749e+00 2.1359363827882345e+00
      1.7802697053177676e+00 -8.9435027994437688e-01
      5.1825640008949299e-02 1.4583797438040127e+00
      1.3830004824846873e+00 1.0065833290176085e+00
      -1.8274729484131480e+00 -1.2503040350253858e+00
      -8.7816704892138914e-02 -7.7755088752825408e-01
      -5.6345115924075528e-01 -8.7910210197366745e-01
      2.0877963521890908e+00 -1.6922498029669983e+00
      -8.3236370422866757e-01 1.0472910971840108e+00
      -1.3519598356599061e+00 -5.1790389079400989e-01
      -1.3377154326952492e+00 -7.1175354730071128e-01
      -1.6273269191794966e+00 4.6035452019321765e-01
      9.9009749762141142e-01 3.1820731072596620e-01
      1.7247899290748243e+00 1.9145805628319330e+00
      1.3217325758236873e+00 -2.5883350799639376e-01
      1.8089723835073723e+00 -9.7943265722254225e-01
      2.0927984356947016e-01 1.5579883987893222e+00
      1.6112805379673847e+00 -4.8713400393229594e-01
      1.2890857723628195e+00 2.3957753651282880e+00
      3.1864015065276332e+00 1.2911898433172417e+00
      -4.8443375223760787e-01 2.1428614749700461e-01
      7.4715909443796347e-01 -1.5471923219778212e+00
      -3.4788796285307216e-01 -8.9712497261464597e-01
      3.6958469145717704e-01 -1.2462089035757782e+00
      -4.9941154820416783e-01 1.8181135959212838e-01
      -2.8312296053158330e+00 -3.9036493720319404e-01
      -1.7317312027304077e-01 1.5583975104350289e-01
      -1.9860712699484799e+00 -5.0341365062596111e-01
      3.4598125486940646e-03 3.4988843619201598e-01
      -6.2508852717076380e-01 1.1174940979910237e+00
      -1.1953603536356308e+00 -2.0874669447014873e+00
      3.1318506403503359e+00 -1.2348096041531633e+00
      -1.5535218248089271e+00 -3.3376398992838618e-01
      3.3855422080697356e-01 -1.1248641487952633e+00
      6.0768133651812217e-01 3.4261149154306683e+00
      2.0628188252363993e+00 4.6747547255345906e-01
      1.2084970073111356e+00 5.1674906129368474e-02
      -2.2893774304656203e-01 -9.6984720800567203e-01
      1.2542881260210097e+00 -2.1042889897686889e-01
      4.4211994421660777e-01 -1.4076769021027562e+00
      6.2474727704998922e-01 -5.3954682820245581e-01
      -9.5625800274961914e-01 1.2295992848400177e+00
      -4.2809649747500296e-02 2.6729300588703631e-01
      -1.5338036195576910e+00 -3.5757386909469974e-01
      3.4103396416516329e-01 2.8081121433124689e-01
      -3.0551378863433110e-01 6.7685964357580386e-01
      -1.4536656195206696e+00 -2.0517728995722675e+00
      9.2930918440900367e-01 3.5711985114652556e-01
      -5.9622973319319605e-01 -1.0309711246699813e+00
      -8.5090324416249052e-01 -4.9232345816412904e-01
      -1.4752250175104484e+00 1.3735840280534295e+00
      1.8936477037041977e+00 -8.0745075718922710e-01
      -2.9877723112174143e-02 6.5909402099554104e-01
      1.0429624029911657e+00 -1.4853524266707330e-01
      -6.1420144097165459e-02 1.5139269136503505e-01
      1.0267346764536252e-01 1.1499997776297870e+00
      8.5367547071196592e-02 -1.4920161052535397e+00
      3.9901680282446100e-01 1.6505413672057853e-01
      6.3648535342558676e-01 -1.5269279154084376e+00
      -1.1434314840616622e+00 1.6011623808087649e-01
      1.6476120445201872e-01 5.9860413073372798e-01
      1.1160709776641540e+00 -9.5574710366721349e-01
      1.2675020405044457e+00 2.7882616153000178e-01
      -1.3976968263990286e+00 -5.8151249119506931e-01
      -6.3214551465757463e-01 -4.4242780906753360e-01
      1.4458474799664311e-01 -7.5699505532530020e-01
      2.0040378779826734e-01 5.5930734225964185e-01
      -5.3664799242554739e-02 6.8657684622758630e-01
      -2.4747195241653301e+00 -3.4185095875407256e-01
      6.4884979372360796e-01 -3.0509862598576148e-01
      -1.4163281446609306e+00 3.1289063703908888e-02
      8.5236066457573678e-01 1.9243093720515705e+00
      -9.8519377186573387e-02 -1.8131092503821360e+00
      2.8510951584150518e-01 -3.7116436941013325e-01
      1.6096331037430449e+00 -1.3286019040275252e+00
      -1.9648612028489874e+00 7.9244890240640820e-01
      1.2487494232659060e+00 8.6208961164940534e-02
      5.5580839509326596e-01 1.1067077760863915e-01
      -2.2789281459005029e-01 1.2589259315706813e+00
      -6.2521403167597900e-01 -2.4088933732805029e+00
      1.7208163634224571e-02 -5.7923896701407451e-01
      5.4723540053385678e-01 -1.9526487464750197e+00
      1.3527061309794728e+00 8.9569315054877674e-01
      9.8008152906154791e-02 2.0894898516588416e+00
      -9.9608899190556865e-01 -2.2134119710567357e-01
      3.2316249457999929e-01 -2.5065237571315280e-01
      -8.5858830087081817e-01 -1.9730393268800681e-01
      -3.5594041410910042e-02 8.1297933473120898e-01
      -4.9556221644316839e-01 -2.0186039768522837e-01
      -8.1540086532759082e-01 -9.1211863672344784e-01
      2.2403275184713403e+00 1.2958049652860518e-01
      -9.6557800555862416e-01 -1.1430727939402805e+00
      5.2425870725075507e-01 1.1226190959776244e-01
      -1.1773907800370786e+00 -3.9830955798977624e-01
      -1.6247820744582517e+00 9.7618021629782681e-01
      -7.7229826174270200e-01 -1.1834155434973064e+00
      -1.1229970447541082e+00 -1.6962189995228463e+00
      1.6123585834201712e-01 9.7145297721159304e-02
      1.4276891184594220e+00 -3.3579935734628136e-01
      -1.7302119636295541e+00 1.0131215519959609e+00
      -2.1558093079019908e-01 1.1178787527545588e-01
      4.2447875567158772e-01 -4.8236799290688359e-01
      -7.6444137684815205e-01 -2.2647450198282526e-01
      -1.6927693271505584e-01 7.2691986404649944e-01
      -8.3936885574171882e-01 1.4643003636812638e-01
      -5.2625211081877732e-01 -1.5735562506287453e+00
      2.5635416031871991e+00 1.6806247126123086e-01
      -1.4193071546381730e-01 -1.1448621698599994e+00
      -2.2489151674725655e-01 -1.1207537170519862e-02
      -1.2074483432426923e+00 -6.7498101271334132e-01
      -1.7068458290900819e+00 1.0280398633768530e+00
      -1.3659172155090127e+00 -7.0276047930516938e-01
      -9.9263354729146325e-01 -1.2978477414016250e+00
      1.2301679557643097e-01 7.0408729139446435e-01
      1.3791474791113238e+00 -6.6322905133833943e-01
      -2.5157537135419101e+00 5.9947602001898614e-01
      1.5350786393409448e+00 1.9640909540006168e-01
      -1.6959675010108537e+00 8.6348353413170464e-01
      8.0430331154008583e-01 -1.7531600256426143e+00
      -1.9371421419659827e+00 1.9588495977496116e+00
      -1.7927142134324527e+00 -1.1835323523748313e+00
      1.1976874874089769e+00 -4.5323719215765816e+00
      1.1920760353455271e+00 -1.1351250663630028e+00
      3.2644108979417021e+00 4.8996809140377184e+00
      -6.3198963492389948e-01 -2.8173298486679865e+00
      6.2671218797226813e-01 -1.0678873688810755e+00
      -2.8565390607519292e-01 -4.8251339912160396e-01
      2.1755549651427781e+00 -2.2908424885107346e+00
      1.2098037979206542e+00 2.0061371343218295e+00
      1.0804365495081172e+00 4.8743909752148191e+00
      1.1626116133396047e+00 -7.7065729614107592e-01
      -6.7446838788057217e-01 -1.4241875734430691e+00</_>
    <_>
      1.8487831464921749e+00 1.7737215362820653e+00
      3.5359878793940543e-02 -1.9961733119446650e+00
      -6.3291379881662468e-01 5.1770258398406632e-01
      2.5827829443180192e+00 -2.6056113530635833e-01
      3.1977714445016909e+00 1.9573972163763682e+00
      1.8140714990257010e+00 -2.8029533918032312e+00
      -1.5541486377054246e+00 -3.0432348797315170e+00
      -9.3199360377373891e-02 -3.4458810394460073e+00
      6.5706081330880606e-01 1.7248330235044742e+00
      1.7997098759791015e+00 2.1596464405372218e+00
      1.8954717315009519e+00 -9.4525039769738084e-01
      1.0034285696440277e+00 -9.9184539025473706e-01
      -1.1053847501157334e+00 -6.1244591253084568e-01
      8.5645246874735848e-02 -3.3419897893619536e-02
      1.6129159470835333e+00 -9.5660005576813312e-02
      2.5579660038978569e-01 -5.3439709220921387e-02
      -1.9607088325973436e+00 6.6895964662001051e-01
      1.0093977264612539e+00 2.2653751519331200e+00
      2.3489167414734338e+00 -1.0559593412125403e+00
      6.6678633637359419e-01 -3.5907771176003911e-01
      -5.3335620011246021e-01 1.4351183378632231e+00
      -1.6071567223781309e+00 -8.0105772276935217e-01
      2.1384778392767108e+00 1.5011595257901862e+00
      1.9386207725708857e+00 2.5431207249459742e-01
      2.3784097946685601e-01 -2.0566239214663917e+00
      8.7150814636926921e-01 1.4227564452830050e+00
      1.1168062451837160e+00 4.2639925522534962e-02
      -5.9224543384393580e-01 2.4152623863823236e-01
      -7.4816881362198473e-01 -2.3070964918719890e+00
      -1.9365348223787575e+00 1.4471571929832321e+00
      1.9358214646046679e-01 5.0380669650914263e-02
      -2.8164917358908281e-01 1.1568864641870698e+00
      9.4344997607049508e-01 -2.0010210437682709e+00
      -2.6086312062328726e-01 -4.8393193347638658e-01
      -1.1619384905037298e+00 6.5735292321746197e-01
      -2.0609380796213334e-01 -1.5303591484097563e+00
      -1.0441796438476583e+00 -1.3286344499621025e-01
      5.7198286359503803e-02 1.0183794419189460e+00
      -6.7679820777057698e-01 -8.5270456759685687e-01
      5.2553862156723585e-01 5.2310361098426228e-01
      4.4828358329825763e-02 -3.3581966384604500e-01
      -8.6773421769698544e-01 -8.7745694651902340e-01
      1.3974337900020182e+00 1.1018161778838284e-01
      2.7723218540003308e-01 4.6743588823310872e-01
      7.5629066658331134e-02 -8.0125231647799466e-01
      3.4992630397786706e-01 -3.7489619368807303e-01
      -2.6757502051125198e-01 4.2463172548264494e-01
      -1.3115346970028483e+00 1.0166898677873710e+00
      2.0986366853146206e+00 8.9496672693052526e-01
      -1.0037054832735635e+00 -5.9524341873208745e-03
      -9.8564643016824627e-01 5.9364854067535489e-01
      -1.6253240559798343e+00 -2.4974946682853411e-01
      -9.8531630022555516e-01 -6.0055660508238429e-01
      -1.0041935418762371e+00 1.6521348066553490e+00
      1.0726939919945602e+00 1.0092575137042059e+00
      -2.5851156713490915e+00 -8.0502242537101576e-01
      -1.2705701208538438e+00 1.9610151460274581e+00
      9.1181292144912196e-01 8.3268548604115766e-01
      1.4946257595434616e+00 -1.5793014263311427e+00
      -2.4689625315152522e-01 1.1080984914223314e-01
      8.4302779740560951e-01 1.9825282371329067e+00
      -1.7295236045896347e+00 3.4398053317944649e-01
      1.3695515530418338e+00 3.7394156781700605e-01
      1.9864196356170876e+00 -2.8945890100439260e+00
      -4.9672216613670539e-01 -1.2980808831371244e+00
      -8.8125727791848063e-01 -1.0351071896171744e+00
      -1.3706969442060928e+00 1.2260142220288472e+00
      -9.7036027294913541e-01 1.7072198623471733e+00
      8.1552053031658112e-01 1.3020707427223757e+00
      -4.2932006260339184e-01 1.9377832549615650e+00
      -5.5895385120669816e-01 1.7993347980202397e+00
      -3.1477056384507809e+00 2.7088911900511148e-01
      1.8577266200956757e+00 3.1829129766802811e+00
      5.4355479204881463e-01 -1.2626949894863275e+00
      -2.4531427425062171e+00 9.8538062052445208e-01
      -4.6226883494268478e-01 -5.6887514690750696e-01
      1.2603441268127613e+00 -1.0378176880194094e+00
      4.1847189378427796e-01 -3.4088818284469311e+00
      -4.1171996216144668e-01 -1.0459012261937235e+00
      -1.3861058055308959e+00 7.6141725549943973e-01
      5.3455639774493406e-02 2.4947534482051843e+00
      -2.9611789232429224e+00 1.8037119086873783e+00
      2.5436217912109393e+00 1.8570629788856432e+00
      -2.2330694664199857e+00 -1.0769084496978393e-01
      -4.1303042521949951e-01 -2.1232205749011719e+00
      -2.6256792314639466e+00 -3.5081015828388790e-01
      -1.5773309849440684e-01 -1.3861549812518283e+00
      -2.7640545914778980e+00 -8.2840963494064268e-01
      -1.5227832349266539e+00 6.7709680301874320e-01
      -5.6519364567084751e-01 -2.0360781071496246e+00
      -9.0834153336601953e-01 7.6195932730488947e-01
      5.8818747420542189e-02 1.7016116246792345e+00
      -1.0150771256646989e+00 6.5263198572915659e-01
      2.5173969257923434e+00 7.9580397827387583e-01
      -5.3988364357364860e-01 2.0221974999429460e+00
      -3.2725809864787854e+00 -2.2829840054484083e+00
      -1.7822453774728875e-01 -2.2561699406710205e+00
      1.6456823763011608e+00 7.4795748648506666e-01
      4.8404398502792501e-01 -9.9221960931145392e-01
      -8.1921160305661947e-02 4.3042287940508945e+00
      2.0340370269844548e+00 -1.7840288161891897e+00
      -1.9680695122629688e+00 4.3849934162602755e-01
      9.3979984107298764e-01 9.4812913607030302e-01
      2.0154177651690293e+00 -1.0815603749317035e+00
      -1.0236663430422437e+00 -2.0466049172247343e+00
      -6.8101174335918013e-01 -2.2498478640734940e+00
      -1.9866952565378735e+00 4.8102338797596095e-01
      1.4252918216255911e-01 1.0599627779612073e+00
      4.2083950522069891e-01 1.0095634674391596e+00
      1.3200941231714773e+00 -2.1189507205845054e-01
      -1.0895572646728273e+00 4.7930662112574662e-01
      6.9850917842959259e-01 1.6786394985711923e+00
      -7.9744955628152547e-01 2.8293610090154342e+00
      1.3926313739359750e+00 -1.2108339041715445e-01
      2.4195513363592389e+00 -1.2504517352569122e+00
      -6.3592689312649864e-01 -3.3248029662752634e+00
      -1.5321508557856018e+00 -1.8723318178160142e+00
      1.2079135805319396e+00 -4.2939500233183614e-01
      6.8490603850253373e-01 -8.2960410225192383e-01
      -6.3392148634949672e-02 -1.1563204118529478e+00
      2.7656504179747734e+00 1.5769037419285187e-01
      2.1182546275914662e+00 5.7395734691847511e-01
      8.5521640750789929e-01 -3.1688268193316227e-01
      9.5571276083275292e-01 -1.2919819775723262e+00
      -1.3583853363040073e+00 -3.6979758251885941e-01
      -9.9799108760085031e-01 1.3057117588480034e+00
      -4.1091496476711359e-01 -3.1415151863416262e+00
      -2.3938137583572234e+00 -4.0013383771791968e+00
      -2.1243904339537365e+00 -5.2397432108735742e-01
      -1.7468039124719341e+00 -9.3203612167632691e-02
      -6.7529263581610255e-01 2.4037469040463713e-01
      -1.0812334130822099e+00 1.5628616617149299e-01
      -1.3642969116267560e+00 1.5189484226604033e+00
      3.4965819477697235e-01 1.6571945968165636e+00
      -3.9899920089463903e-01 -1.2951219733479160e+00
      -5.3518289308142142e-01 3.0901510303129768e-02
      3.0461402405971683e-01 -3.1189076547916073e-01
      1.0146729517245656e+00 -4.8802981480230156e-01
      9.4098140608816605e-01 -2.2576420256873167e-01
      3.6850098848047580e-01 1.1531594608271614e+00
      -2.6249351478946101e+00 2.7422841801361630e-01
      2.2858396607813831e+00 2.0285683037148345e+00
      -2.0469343627981638e+00 1.1517880861688423e+00
      -1.4037887488207907e+00 2.0596357857010048e+00
      8.8426663843517994e-01 4.0178397689292051e+00
      -1.5066688307058032e+00 7.0321494651007066e-01
      -3.7877767690212799e-01 2.2620934074491644e-01
      4.4236726293839568e-01 -2.8246049458351461e+00
      -1.2689311874432396e+00 -8.6484157093215974e-01
      5.4995077591101449e-01 -1.2789832054161308e+00
      -5.0137444802195952e-01 -1.3389178736299594e+00
      -1.1669864161744110e+00 -5.8640422524759234e-02
      -3.3281144317517558e-01 -3.6866433891252354e-01
      3.6528481118367823e-01 -3.7823662252313944e-01
      -1.1991950724624254e+00 3.4176233899724057e-01
      -2.3184713257513265e+00 1.8651932919651655e+00
      1.2431951790306041e-01 -3.1696946410008427e-02
      -6.1897893600534359e-01 -3.8433863452330505e-02
      -1.6960567507678932e+00 9.5472099815051545e-02
      -2.3447042172251260e+00 1.0166254571060185e+00
      1.8870688921228831e+00 2.6709653638376323e+00
      -4.1216387286246525e-01 -1.5816067880638198e+00
      5.5355126978435054e-01 2.4737573788754535e-01
      9.5443018328194584e-01 -3.2529537775718635e+00
      -1.8723421487391427e+00 -2.5418798611808602e+00
      2.2186807051715478e+00 -1.5714089659416637e+00
      -3.6200074923244991e+00 -2.3672048129877150e+00
      -2.4810370378791133e+00 -1.3067706188026498e+00
      1.0156817970496608e+00 -1.1937045935173150e-01
      3.2137987933549330e+00 1.7985600340114319e-01
      2.1497043198213936e-01 -2.9843240745048427e+00
      -1.5242443726037436e+00 -5.5096365934506919e-01
      -1.9851852683440152e+00 1.7586693366578310e+00
      -1.2310917540602360e+00 8.5652648952069077e-01
      -1.2427442585436210e+00 -1.3712834574030943e+00
      -6.0957853107919657e-01 7.8607966075388214e-01
      2.0433520319144214e+00 -9.7245966807391271e-01
      -3.3365655410801058e+00 -1.9433866356799445e+00
      -8.2800549838190818e-01 1.5120935926690622e+00
      2.8366664392379639e+00 6.5769658055976565e-01
      8.4612490051746025e-01 -8.4263402674794985e-01
      1.4302020340139119e+00 6.7408817588776948e-01
      -1.9446325943320912e+00 1.3491204000274277e+00
      -1.5735942436660260e+00 2.2348155844309514e+00
      3.0634834314140482e+00 3.3937004134476880e+00
      -1.7890297900475187e+00 -1.7768522336251080e+00
      -6.4304371072150268e-01 1.5086906811134349e+00
      2.1114545713648996e+00 1.9745277264250345e+00
      2.1388798666403126e+00 4.1644304852654485e-01
      2.4991390385284911e+00 -1.3954019959218291e+00
      -2.4506633102422652e+00 -2.5073013112321334e+00
      -1.1329041981380279e+00 3.4641147390451732e-01
      3.3283441018930637e-01 2.3374831037081778e+00
      -1.6871553934586163e+00 -1.2722967760646906e+00
      -9.2268790781988619e-01 1.5669844907942881e-01
      -3.2591017449697074e-01 -8.0920292592610898e-01
      -1.1211160929387474e+00 -1.0542654609385640e+00
      -6.4028551002603229e-01 -1.1364264850294308e+00
      -6.1055791779038604e-01 -1.5494158197948049e+00
      -7.0941834943710624e-01 -2.4334998456234699e-01
      -2.5565733539663129e+00 -2.3896954909203338e+00
      -2.6339581528393334e+00 1.3770972598628191e+00
      8.8482144164038334e-03 1.7827472654275629e+00
      -1.6528475663261926e+00 -9.9246125141673669e-01
      8.8138008516916477e-01 -2.2187858467596291e+00
      -1.1173449837472496e+00 3.4169114202361328e+00
      1.0936299805750900e+00 2.7006730571339527e-01
      5.2151656022723625e-01 -2.1623459957357549e+00
      -2.6768255461485504e+00 -6.6810433245080492e-01
      -8.5371812877407882e-01 2.3524447549654557e+00
      -2.2720772559698907e-01 1.6163330026661717e+00
      -5.9683073163398104e-01 -1.1349506363557635e-01
      -9.2084443934755678e-01 -1.0518029502230495e+00
      1.6791549069370848e+00 1.9382675849820545e+00
      -1.6474308154488548e+00 -1.4840817819012457e+00
      -7.8300023083094084e-01 -1.6956974597956187e+00
      2.8048983404402326e+00 1.7212264266596640e+00
      1.4448878064923662e-01 4.1559390595821488e-01
      -2.9412898514359931e+00 -2.0573439324529053e-01
      2.1901961082105292e+00 -2.4399377467138241e+00
      3.2463701166414055e-01 -1.8692045049370480e+00
      2.5348884723217685e-01 -5.1044450145287501e-01
      -2.0298664777652053e-01 -1.8234184456145408e+00
      -5.5327521168338867e-01 -1.8391114792609138e+00
      -2.4298210405343910e+00 -2.1121660999413154e+00
      9.3602486638464011e-01 1.0776589905170957e+00
      1.1282351226626168e+00 5.4005792056810983e-02
      -1.1719202736875876e+00 -2.0491297311156695e+00
      -1.1780261917084405e+00 -1.2007855684527282e+00
      -9.5491896963115119e-01 1.0154652203118140e+00
      1.3010574589759089e-01 1.7317369088429648e+00
      3.1537575661652745e-01 1.1515149999549126e+00
      2.2653194085609054e+00 -2.4685800846322334e-01
      -2.7563122409820098e+00 6.7239210582947767e-02
      -1.7387394740248023e+00 3.1056906560091062e+00
      1.3626350987183982e+00 2.2808371578660198e+00
      6.6063881278330550e-01 -1.3509019768551700e+00
      -9.1264585919230284e-02 1.1787798108104148e+00
      -3.5110080888348913e+00 8.5928283854149767e-01
      3.4418484697364682e-01 2.8398740636959525e+00
      2.4129769174343432e+00 2.6408262216119591e+00
      -1.1763111365802794e+00 -3.4533669541731813e+00
      -4.1654987396455629e+00 7.3554337327810149e-01
      4.4221953932963015e-01 1.7059211539485601e+00
      -2.0116260906063707e-01 -9.6603303809556351e-01
      1.7222385408194958e+00 -1.3671991985508583e+00
      -1.4683760189695703e+00 -2.7184471759844810e+00
      -1.7381728672039525e+00 -2.6536404651161849e-01
      -1.3190730238631729e+00 -1.0137973882561713e+00
      -1.6136857484534212e-01 2.2085420205288968e+00
      -5.9142544441849410e-02 -1.7203231115039236e-01
      -1.8747656000185566e+00 1.1616382808138832e+00
      -3.1286073479272765e+00 -1.6582278246199591e+00
      -2.7609735002402025e+00 1.9223065837372446e+00
      3.5260357609096551e+00 1.3232467639175804e+00
      8.2714378408817213e-01 3.1097162044318249e+00
      4.3334330118079381e+00 -5.9418545384184416e+00
      -3.6425710016875729e-01 4.2442908013946798e+00
      -5.2245611438366728e+00 7.4913417533901727e-01
      3.1303237897482781e+00 -5.4567568174650001e+00
      3.5719794511075720e+00 -2.8257754936643367e+00
      -3.6542427402854574e+00 7.6520285658571707e-01
      2.7625667944130639e+00 -5.1664888425115700e+00
      4.6808567740329847e+00 -1.2909142727502068e+00</_>
    <_>
      4.1368633136097521e-01 -2.1456566008000375e-03
      -1.5681710538985508e-01 2.0249056710873911e-01
      1.3060254973989413e-01 -3.8903063231392748e-01
      -1.2659160366835276e-01 -3.4500867591810869e-01
      5.1357787849857894e-01 -3.1957226854511644e-01
      2.7724847982829054e-01 3.5071522203330252e-03
      -2.8582678265486783e-01 9.4165881349045832e-01
      -1.8771036837912744e-01 -9.7516995303912801e-01
      2.4154053148329874e-01 -1.7839293594065816e-01
      -3.1348573233515878e-02 3.2320333696118725e-01
      5.1312191960208930e-01 -1.5284686658712288e-02
      -3.3983227799774895e-01 -2.4687591827910760e-01
      1.4799724841440393e-02 9.4131170394822239e-01
      -4.7674872060454676e-02 4.5667727226825772e-01
      -1.5444339135474896e+00 2.2850934800119219e-01
      -5.2781328277683470e-01 1.8198406171560495e-02
      7.7606357178842023e-01 -1.6388723722097812e-01
      -1.5171124235161396e-01 5.6784968760258214e-01
      1.1029363496802956e-01 -7.4310586967349257e-01
      3.9668624147487119e-01 -4.0355531812523149e-01
      3.3377288901203367e-01 -7.9316943669839653e-03
      -1.0720352847744360e-01 2.0649041652546601e-01
      8.1182930173907042e-02 -5.4322257716131839e-01
      -5.4187410703826169e-02 -2.9365565368679486e-01
      -6.2041302892717420e-01 9.1749202163781507e-01
      -3.2920427302007688e-01 -1.7879439206619416e-02
      -4.1813889813930427e-01 3.5731188045077064e-02
      -3.0083739939108331e-02 2.4564550815178130e+00
      -1.1058239634725453e-01 -2.0618606874469134e-01
      -2.4421823679151742e+00 7.3427506459056668e-01
      -1.9886538691585631e-01 5.9009475733964260e-03
      -1.8239516128478525e-01 6.1796393198570491e-02
      1.6457987907847940e-01 1.3897529684219028e+00
      -2.4278573990192512e-01 -5.6830079704108957e-02
      -8.0460217191649219e-01 -1.2969124808028043e-01
      3.2828467800399989e-02 1.1037314079089786e+00
      -1.8790506314285076e-02 -5.1600646322158245e-02
      1.0839545018885443e-02 1.3982472588917647e-02
      8.0261087075375187e-03 -1.0407170978513034e+00
      1.8722940701086991e-02 -1.4208025907532538e-02
      2.6680084903611423e-01 -1.1054325399906824e+00
      -3.4961274833295392e-01 2.3914452975391715e-01
      4.1088532172611275e-01 -1.0710747021737317e+00
      7.2114324342807656e-01 1.0097927427069424e+00
      -3.3639217059252942e-02 -2.2730226954479238e-02
      -2.5927358581803461e-01 -1.0407812408187807e-03
      3.5526596444520847e-01 3.2011377465369001e-01
      1.8749521446167433e-01 -5.1692381449302260e-01
      -1.8076079910142553e-01 2.1630682120790071e-01
      1.5184806730302092e-01 -3.0194975985023553e-01
      -1.9062151277496409e-01 9.9426717844685753e-03
      6.6655024292052745e-01 -1.0491625485700871e+00
      -7.0926586313107234e-02 2.4207697054151003e-02
      5.6639161897353602e-02 5.4693733810232854e-02
      -2.2191974751434118e-01 5.1298670162045790e-01
      5.0138243227911949e-01 -1.0992270396997803e+00
      -6.2082699254961660e-01 6.7341627379964442e-01
      7.0563217791018373e-01 -4.7183674433979839e-01
      4.1287700009771577e-01 6.4702821589028348e-01
      -2.0350524431877567e-01 -4.5107734205716210e-01
      -9.0360055823532015e-01 1.6780249502462167e-03
      -1.1913754433435325e-01 -1.0264920562472069e+00
      -8.3800018986670208e-02 1.7757683649489804e+00
      -4.2596862197587196e-02 4.9053352735821154e-01
      -1.0397438633494513e+00 6.1449268462862594e-01
      6.9367956771491912e-01 1.3934778853179708e-03
      6.4678760398214785e-01 5.1933888859268022e-02
      -5.7880811696555796e-02 -1.3630410748370170e+00
      1.1577124581987296e-01 -5.2413101082255864e-01
      4.8436031975382188e-01 2.1654224097720732e-03
      3.2280729851373585e-01 -3.5206481257317626e-03
      -3.1537177408946782e-01 9.8890258269365217e-01
      -1.4916363967173246e-01 2.5571280742969676e-01
      1.6111116720311802e-01 -2.8022458216552132e-01
      -7.9467595973432836e-03 -8.9800460923682668e-01
      1.8068167574417074e-01 -5.2242310340673229e-03
      -3.0676533214674873e-01 -3.1590921711230918e-01
      -2.3694473475824268e-01 -7.2798625227591418e-01
      2.5322367486334646e-01 9.2611480894435716e-01
      -1.9405294762695313e-01 4.4729030896145094e-01
      -7.5839792756416724e-01 1.4611420510630082e-02
      -7.0989136707276179e-01 -1.8630864735731698e+00
      -2.0370687931548117e+00 -4.4502969194638080e+00
      -1.5334284437588090e+00 -2.5973968342607074e+00
      -1.0788509708736518e+00 2.2803050624179280e-01</_></weights></opencv_ml_ann_mlp>
</opencv_storage>
